~h "f"
<BEGINHMM>
<NUMSTATES> 5
<STATE> 2
<NUMMIXES> 2
<MIXTURE> 1 4.3612136626799985e-1
<MEAN> 39
-1.618554785379802e1 -5.492391302139437e0 1.4256355421333775e-1 2.203773446677938e0 -5.802288005374574e-1 -2.6737965995919377e-1 -1.815685651664642e0 3.469798654884333e-1 4.6858169963458e-2 -1.3873750393651224e-1 3.1926094185005893e-1 -1.6354455235834373e0 4.487750491218445e1 -9.999599690169961e-1 -4.04066839001306e-1 -1.2163695589777844e-1 2.4502156461393837e-1 2.877662844718225e-1 6.091925725016971e-1 5.407192742075068e-1 5.985078835205769e-1 6.563590904047041e-1 6.386927071027736e-1 4.6860844943325203e-1 2.716547171321655e-1 -2.583029275727413e-1 4.406577246525434e-1 1.8561713720283233e-2 -1.0444969158172297e-1 -3.1406088648932035e-1 -2.3181036750843112e-1 -1.9469339911877642e-1 -1.639113668026101e-1 -1.5963971456080148e-1 -2.2884881926842948e-1 -1.1912573799047359e-1 -8.052364593882143e-2 -6.370901491853863e-2 2.3423241138024728e-1 
<VARIANCE> 39
3.038260696883924e1 2.518866841655394e1 2.02179315326307e1 1.831176295395717e1 2.0793080674600496e1 2.1521746509051574e1 2.0674975126985895e1 2.0958520641952642e1 2.1135943294119574e1 2.2234343273087774e1 1.913496983887401e1 1.6387591314789265e1 5.6967589993428874e1 3.125505231141519e0 2.415035367076558e0 1.9451566440036046e0 1.6063208516320493e0 1.7363651578243986e0 1.8373387948559583e0 1.9514279399314969e0 2.303562347828509e0 2.5215163176402036e0 2.2336784987450953e0 2.0992195216572416e0 1.8822374496343615e0 2.3839453433192928e0 6.106409381751112e-1 4.2928364948138265e-1 4.359438095112363e-1 5.041471708315223e-1 4.3645952275405997e-1 4.181898825500614e-1 4.70566112029707e-1 4.8976211814023957e-1 5.389377633338286e-1 4.768139629546294e-1 4.5730855462849135e-1 3.846221475273921e-1 4.3171308366308486e-1 
<MIXTURE> 2 5.638786337320071e-1
<MEAN> 39
-1.9029108645149176e1 -7.930851125747577e0 -1.6037811975832645e0 2.0414725755584123e-1 -2.849070507027111e0 -1.7074553317605556e0 -2.5732258770043126e0 1.133240915687848e-1 6.1282203744192465e-2 3.7026340510346034e-1 1.1419396542882065e0 -1.0049170191722052e0 4.6568833336827204e1 -1.907924844159229e-1 -6.479050797405349e-1 -6.425952969337299e-1 -5.812026979983749e-1 -4.6987420006492414e-1 -3.416642012824439e-1 -4.4640188613697374e-1 -3.858064364504269e-1 -2.698523680986114e-1 -1.7719029019744736e-1 -7.532287035802553e-2 -2.9247008493147708e-2 6.985376448738345e-1 7.016224672332636e-1 2.527377003494331e-1 1.1245881976958043e-1 -8.650263687321524e-2 3.4178017476042585e-2 -2.588388637456887e-2 -7.604401690717652e-2 -1.8869637861249117e-1 -2.3279395960684843e-1 -1.7230851726355664e-1 -1.9700702564675351e-1 -1.8465392343914813e-1 2.598834030372739e-1 
<VARIANCE> 39
1.698490535983342e1 1.87208511857674e1 1.3906963378765989e1 1.5635516848135234e1 1.6030554052562053e1 1.900004815047442e1 1.8529770474953203e1 1.8840700401641463e1 1.9052328575671766e1 1.851014050023201e1 1.512884440422387e1 1.3446678688216325e1 4.300220840151542e1 1.671124679031439e0 1.4540924261806338e0 1.328839150099897e0 1.399128381173806e0 1.4721723744951987e0 1.5002522192195316e0 1.594916837471569e0 1.7355373426742422e0 1.8055932401326311e0 1.6708739870135176e0 1.4918211249917495e0 1.3968576372452177e0 2.378042298251099e0 5.800405423768176e-1 3.0207720442917674e-1 3.0800354980436e-1 3.955630820978829e-1 3.407853403987528e-1 3.598988636734689e-1 4.0515417581263413e-1 4.4180894658544434e-1 4.6915095552988423e-1 4.008114711630604e-1 3.82897801554239e-1 3.351300833267296e-1 4.266425512272047e-1 
<STATE> 3
<NUMMIXES> 2
<MIXTURE> 1 5.433350523799982e-1
<MEAN> 39
-1.4774183467606207e1 -7.903738989720674e0 -2.4250388861170853e0 -5.815532569348673e-1 -1.720480828756871e0 -6.91633174075293e-1 -2.7604163461878004e0 -1.2956870615990375e0 -9.531716518518003e-1 5.304041175299069e-1 6.495271228254155e-1 -1.877012848481967e0 5.1938018763613364e1 4.936042882906275e0 1.3463761255417848e0 3.5039740326177315e-1 -2.078237914779544e0 -1.1218945482012903e0 5.042079832975203e-1 1.546728864257073e-1 -1.1107629194835189e-1 -7.265372432439406e-1 -8.099770143607458e-1 1.8467626434340315e-2 -8.945896117495254e-1 1.5076043269112234e0 1.3456782141901178e0 3.005615657866807e-1 8.256238577626908e-2 -1.1746902808279653e0 -9.439629361854096e-1 2.2851444108468114e-1 -1.2182804619038673e-1 7.635208203340084e-2 -2.875253057555102e-1 -3.573510338708411e-1 1.1368514375529926e-1 -4.307514054449937e-1 3.4933617300212083e-1 
<VARIANCE> 39
3.414540911605792e1 1.5329284005513195e1 1.2980898802032897e1 1.4071246967339047e1 1.7108616662980378e1 1.7899784245612874e1 1.6953006141674905e1 1.5676181579903322e1 1.5598427754574649e1 1.4300892400864445e1 1.4083313748469438e1 1.1561821337232113e1 2.4391079078599887e1 4.85410117444242e0 3.266114152986277e0 1.9918725815300633e0 4.499076469991413e0 5.0133298844955085e0 2.7426099053088677e0 2.2174993058839676e0 2.7938551405596015e0 2.691338828448424e0 2.8511048535572594e0 2.7383131929815003e0 2.127087105072232e0 3.3171130933998603e0 7.264140213056876e-1 7.740019582183659e-1 4.3783721077593907e-1 5.645688450394852e-1 7.145706415169644e-1 6.647598733319032e-1 5.597342587148866e-1 6.6005627692516e-1 6.086365954905458e-1 5.519283420380865e-1 7.464214080798109e-1 4.087537001894659e-1 5.916544949076379e-1 
<MIXTURE> 2 4.566649476200032e-1
<MEAN> 39
-1.5650788540914911e1 -7.426089452179157e0 -1.8106957692454007e0 -9.02313141646613e-1 -3.323984295826153e0 -2.41087760862543e0 -3.710946508019565e0 -1.5380492583801133e0 -1.0175037638642528e0 -1.168612093870655e0 -1.61769355700874e-1 -1.931962886098812e0 4.9455845622767804e1 5.3513091828722885e0 -1.5567363732164222e-1 -1.5661205905016657e0 -3.549579197626056e0 -1.1677776361059007e0 -7.45641404821302e-1 -1.4173585716489607e0 -1.7667311847934482e0 -2.0759151859020237e0 -1.1293756125601275e0 -2.143514060419329e0 -1.6804768817344442e0 3.4132994034403183e0 1.1439407800803194e0 -1.6400508077640155e-1 -4.177695502794184e-1 -1.276183902815068e0 -1.8192950171633177e-1 1.4619536494760046e-1 -1.268410631285649e-1 -2.0024201889209534e-1 -5.258901849209887e-1 -3.293201357202301e-2 -6.067101074596877e-1 -4.6048470992434676e-1 5.041165755602941e-1 
<VARIANCE> 39
2.818305672176203e1 1.8415785646157516e1 1.3309726750888775e1 1.5299834837685854e1 1.6123381851761124e1 1.615519544746489e1 1.6561296852527327e1 1.8191608877775327e1 1.8193184915321016e1 1.5297833964849579e1 1.513301692410849e1 1.2404900649645636e1 4.081730721973372e1 5.006802602444129e0 4.703848155879007e0 1.9777405807728847e0 5.801457653227358e0 2.6811554145397714e0 2.735882963085639e0 2.699193663456366e0 2.844784770906047e0 3.606190906807723e0 2.729408668026368e0 4.230357932869399e0 3.0126737456435513e0 5.040433657375944e0 7.360956341083016e-1 8.680615997241321e-1 3.7702941107121185e-1 8.492961384460596e-1 6.07274312543871e-1 5.815716190105813e-1 5.88890829784533e-1 7.262839022682916e-1 6.454502200189036e-1 5.386183579839977e-1 7.614092117200983e-1 5.53603106253028e-1 7.784056822127039e-1 
<STATE> 4
<NUMMIXES> 2
<MIXTURE> 1 5.139425391126177e-1
<MEAN> 39
4.428200008271938e0 -1.5085207426293987e1 -6.061968578424784e0 -1.620529115087566e1 -5.365862823980996e0 2.2365654979913634e0 -4.425719842404458e0 -4.001159202088419e0 -4.611071186425886e0 -2.225818118890812e0 -1.9415348712084521e0 -1.1790654426893077e1 6.566584256248115e1 1.3156698872862636e0 -2.531620822532502e0 -5.004333239846472e-1 -2.044363315118699e0 3.8337544419209807e-1 1.4669402413045687e0 1.9707063939473685e-1 -2.685244408415382e-1 -2.109820965064493e-1 -5.253660435611407e-1 -2.385811877016231e-1 -1.2683029125915988e0 2.6841133225309157e0 -1.7769202958029853e0 3.6104192409324715e-1 3.4415058784677177e-1 1.2715949483665994e0 4.7523713582394e-1 -1.2194759246302525e-1 1.9224160060539278e-1 1.4834031279488571e-1 3.979304810859698e-1 -7.468415852343367e-3 -3.6979020126376334e-3 7.389746252373851e-1 -1.0345579160131126e0 
<VARIANCE> 39
1.3009311485950391e1 3.423824133989794e1 3.504617312385632e1 4.335943306625245e1 4.4372105240886306e1 6.239084529785031e1 5.247725144650601e1 6.159168987068449e1 4.52878230080863e1 5.195767789049026e1 1.460347578783164e2 4.6058241620863555e1 1.9496624212400093e1 5.771826931426522e0 2.04878847645677e0 1.770967362732752e0 5.356452158206076e0 4.278002310888684e0 2.8633522874652964e0 3.0319928922457486e0 3.3343832497409758e0 3.197135096004327e0 2.4083591833662266e0 4.650722920519394e0 3.3939363203368504e0 2.367479852419219e0 2.914653242500429e-1 4.292334192605549e-1 3.4929444671106485e-1 4.9218327699169273e-1 4.230775129971374e-1 5.127419064228048e-1 5.030620497263252e-1 5.393533515798705e-1 4.691315165671971e-1 5.437193421606582e-1 1.5228158410081012e0 5.610583193259496e-1 2.6555769557753117e-1 
<MIXTURE> 2 4.8605746088738333e-1
<MEAN> 39
2.6354273594840456e0 -4.0762006730197164e0 -5.804287462062896e0 -1.1684582475820783e1 -7.993078076251591e0 -3.5380462857003385e0 -5.797706034583572e0 -5.272817039538283e0 -6.398807637256195e0 -4.491262169489159e0 -5.40898348173845e0 -6.920511955289815e0 5.675259401627218e1 5.947642222098628e0 -2.1740185400790762e-1 -1.3005954694330069e0 -5.328694152739962e0 -2.098385527076677e0 3.6835663942675156e-1 -8.581787545611409e-1 -7.331073769804621e-1 -2.0004878308029723e0 -1.0268162075012441e0 -1.5925731316961005e0 -2.028774894967701e0 3.097298459692663e0 -1.3845772673759777e0 -5.778867900443679e-1 1.7974929655006097e-1 2.8094641143674964e-1 2.3788792269952538e-1 3.98430819432266e-1 2.0605020430523047e-1 4.43490995079031e-1 3.403153652618358e-1 2.8453348682623303e-1 4.1477307756153564e-1 2.6254042282592943e-1 -2.4951080774363274e-1 
<VARIANCE> 39
2.0742437301984186e1 4.739343433166655e1 2.5904029077911133e1 4.000805704273796e1 2.878753430943263e1 2.5336705117040385e1 2.757872465765263e1 3.394504401701005e1 2.809204780620376e1 2.692729191473827e1 4.555239525559228e1 2.2560156647542513e1 3.2170312204290894e1 2.796927276304551e0 9.001948647133162e0 4.709496506851586e0 6.448224883449463e0 8.87192447852459e0 5.150572999967784e0 4.716631667567751e0 6.307213550102526e0 5.967419611746089e0 5.061445205326834e0 1.027007259002519e1 4.407054184322063e0 3.8869732675519053e0 3.890509990144091e-1 3.3359580270874545e-1 3.012537779089342e-1 6.7141695001793e-1 4.0587156422621595e-1 3.687133569968086e-1 4.3016884802105093e-1 4.4975207254999494e-1 4.1901870628111904e-1 4.221072445308831e-1 5.023491053681705e-1 3.987915542501491e-1 4.3819824166263377e-1 
<TRANSP> 5
0e0 1e0 0e0 0e0 0e0
0e0 8.749938008850718e-1 1.2500619911503155e-1 0e0 0e0
0e0 0e0 6.318917697606774e-1 3.681082302392264e-1 0e0
0e0 0e0 0e0 5.565040985486622e-1 4.4349590145127593e-1
0e0 0e0 0e0 0e0 0e0 
<ENDHMM>
~h "k"
<BEGINHMM>
<NUMSTATES> 5
<STATE> 2
<NUMMIXES> 2
<MIXTURE> 1 5.465722504442674e-1
<MEAN> 39
-3.0946175347707303e0 -4.6599983598417385e0 1.2124385275320899e1 2.6087988644949606e-1 -1.4845727214359027e1 -1.8818780829117735e1 -4.1740093899630555e0 -8.409757695233647e-1 -1.3679998795223343e1 -6.229160078920872e-1 8.120290746001424e-1 -4.431698462654747e0 5.326503320484515e1 -1.198345344095395e0 4.082588515594355e0 -1.2548786235281835e0 3.096307653565459e0 2.925899444683986e0 1.6342860047740275e0 2.7992795731178416e-1 -8.445493595147295e-1 9.139905696288314e-1 -4.5670852555430363e-1 3.6511385181228845e-1 9.177353970575934e-1 -6.661838329035507e0 -6.899890086757924e-1 -1.5238076784661705e-1 -1.0225290849548394e0 -5.686279821208304e-1 7.410978179770944e-1 1.0517054392136842e0 -2.730448245109279e-1 5.071519924770502e-2 1.4900057023658686e0 -1.3238712717745572e-3 -1.3030383349854024e-1 3.124790003729207e-1 -3.6092480465489857e-1 
<VARIANCE> 39
1.2973457699673833e1 3.0996931718327055e1 3.674238778837602e1 7.565984458763819e1 5.963124759969318e1 4.356481096929923e1 7.382050408872573e1 1.5697328892532417e2 6.910597830376548e1 8.485587007142391e1 9.740522416512113e1 4.099025133169048e1 5.262149155708539e1 2.318122384693968e0 3.2996121060803603e0 3.85469578615055e0 4.9398298304947446e0 3.5306323952240657e0 4.820547961907871e0 6.988845116319322e0 7.098623464293828e0 7.362851674739117e0 7.40126037828213e0 8.753447675180087e0 4.465433514738527e0 3.225121755713552e0 2.692875148431957e-1 1.0484319360268657e0 5.432174199912478e-1 9.02802273001426e-1 7.751173428568059e-1 6.607002151352164e-1 8.331631383321325e-1 1.6946013690966921e0 1.0585662078541893e0 1.3159624312577662e0 1.259518078347635e0 7.399174820451755e-1 1.2707063501640539e0 
<MIXTURE> 2 4.5342774955573323e-1
<MEAN> 39
-6.799513537818982e0 5.180501760969145e0 7.711866871131784e0 3.6138596388301867e0 -8.737487646995998e0 -1.2839211562341124e1 -5.840772210702457e0 -6.901300158732116e0 -8.878144134099871e0 -3.2196445164692813e0 -1.1533295853221248e0 -3.177777249335074e0 3.847250694978508e1 -2.4597518059234855e0 9.484416206881258e-1 -3.3119509523867596e0 1.1519448613629042e0 3.702066570825208e0 3.1727387995430743e0 -4.4674491305507474e-1 8.302468388663997e-1 3.2868980101605523e0 -3.212676045852053e-1 8.986221858277554e-1 1.265360616773913e0 -4.404398069252837e0 -3.3180322086708497e-1 -1.9125995598166465e0 -6.297061109954178e-1 -1.0526838098251388e0 -2.645245512694915e-1 1.7722426934099353e-2 2.2459958798796678e-1 7.979245517322363e-1 4.914294080747796e-1 5.37375873310997e-1 1.299704338651989e-2 2.7793183450725515e-2 2.2197705110022046e0 
<VARIANCE> 39
1.9726865171299366e1 3.058085673053384e1 2.6197776294712e1 3.78066382781432e1 5.2155060656614026e1 3.2600735475959624e1 4.00960015118828e1 6.487273911790518e1 3.6876297211571284e1 4.1118299459459436e1 5.042797076345755e1 3.9956246238082386e1 3.2095007323717255e1 2.18568657203228e0 8.060155431698604e0 3.5193275543555753e0 7.980524132422249e0 4.355215899823326e0 4.304343453906329e0 5.84423566627432e0 1.0722595576623808e1 6.1484253368171515e0 8.038429963205294e0 9.225319743176573e0 3.827196745301646e0 8.692404199857858e0 6.100798581565183e-1 1.1297248729807818e0 6.615188291251364e-1 6.979745628491285e-1 9.025729202814361e-1 8.15780688647213e-1 1.1254450699533518e0 9.980145230860595e-1 9.00991723474179e-1 1.1203168257931875e0 1.2735902506275416e0 9.383292952648409e-1 1.4309735296770718e0 
<STATE> 3
<NUMMIXES> 2
<MIXTURE> 1 5.229648811088226e-1
<MEAN> 39
-1.3463966014710385e1 1.8853555643093811e0 8.256235548940523e-1 1.886754248900583e0 -2.3925763968098157e0 -4.926801416997616e0 -2.6891943161981553e0 -6.70012785254036e-1 4.9713704357803096e-1 1.1803093152223176e0 2.6824200930201463e0 1.1425473671387554e0 3.261801868253787e1 -1.1332430585708773e0 -2.184642758526795e0 -2.78351872563696e0 -1.2200403441187559e-1 1.6157912500530962e0 1.7405696653021085e0 6.059903176725403e-1 1.2526723592500422e0 2.046882303327844e0 4.9014855662933665e-1 -1.0882211794571902e-2 1.971349110096857e-1 1.0194464474739877e0 4.560210661681372e-1 -8.983985897679607e-1 1.290946982706551e-1 -1.7756433465476051e-1 -8.135471612975852e-1 -9.740046607765368e-1 -1.0239459965142528e-1 -6.122554218517502e-2 -7.45277668399837e-1 -2.2346130512542953e-1 -3.971171315570553e-1 -5.514875396778361e-1 2.4469678108702366e0 
<VARIANCE> 39
1.0368234297501658e1 2.70468699425729e1 1.5934267756784815e1 1.4988624376821187e1 1.8777505817418096e1 2.5300081859758574e1 2.4273709333627416e1 2.262337551451205e1 2.00125657339935e1 2.028207027835218e1 1.894736463370854e1 1.7280379161980044e1 2.871212461410846e1 3.396321944637121e0 6.826617235459495e0 4.434198662413545e0 2.7113894055438528e0 3.4716497750772675e0 4.484290760378693e0 3.6989014874518027e0 5.031642321155058e0 4.571439380959185e0 3.2767790359955313e0 3.975771178199418e0 3.2175200570551845e0 1.0708597766327122e1 4.933090150930357e-1 1.2951285155924783e0 6.62919056587041e-1 6.238098176209163e-1 7.837785140563488e-1 8.165677127854463e-1 1.0458947310932285e0 1.0556759651383738e0 6.486829256819745e-1 7.071014203684304e-1 7.432676464467026e-1 5.255899090292363e-1 1.343489719760103e0 
<MIXTURE> 2 4.770351188911797e-1
<MEAN> 39
-1.0522272904943254e1 -9.185170899164616e0 -7.47397871752298e0 2.462831265766945e0 -4.853175162515347e-1 -5.4547692270733465e0 -5.214308008812584e0 7.634242679057133e-1 3.5803761952183744e-1 -4.472758362015266e-1 -1.1261303565315076e-1 -1.9650452597173074e0 4.657514278794697e1 -1.4963798088739702e0 -2.382479109843294e0 -2.2603486456913195e0 -3.1807557374290146e-1 7.229785681659197e-2 -1.2534802597158803e0 -5.246992203718684e-1 7.046319038286448e-1 7.017812897307895e-1 -3.6092057640693065e-1 -5.529764578157748e-1 -6.103999606050672e-1 5.824403544275921e0 -1.1064540288820799e0 1.3161254381666188e0 1.274277136946678e0 -4.897948150585376e-2 -5.963086822552404e-1 -6.604861478426942e-1 3.305135389598991e-1 1.3227522020591317e-1 -3.9131828481704445e-1 -2.544185337913156e-1 2.1213929079775581e-1 2.0199182350739317e-1 -4.1800930195843924e-2 
<VARIANCE> 39
2.1112041464300304e1 5.462010938459436e1 5.158706958726308e1 2.582365647588475e1 3.2133429791845565e1 4.096509158458056e1 3.7133538261130056e1 3.1626468325720705e1 3.034866739756184e1 2.453241817455166e1 2.0385767704475935e1 1.6500814708482732e1 8.71882704697955e1 6.555859872770609e0 5.0349275465132095e0 4.657330235940586e0 4.788189100860317e0 4.098819368366388e0 4.816611414593187e0 4.521873354108066e0 3.831368592145694e0 3.70227431317279e0 3.210988504447561e0 2.8444679263861623e0 2.548572920490544e0 4.164543255209033e0 7.49278645277655e-1 1.2837185794253858e0 9.530276987236079e-1 5.536410713999576e-1 7.329198467344205e-1 1.0182217857714146e0 8.50861473339796e-1 8.367258104620245e-1 8.473911210415187e-1 6.533078303148562e-1 5.943017305592823e-1 5.088567506985764e-1 2.1989222537553177e0 
<STATE> 4
<NUMMIXES> 2
<MIXTURE> 1 5.009532094091441e-1
<MEAN> 39
-1.7896871923774775e1 -6.540633476250994e0 -6.151484469733641e0 1.15024062787532e0 -4.5977908078601093e-1 -1.1227215043327892e1 -5.424022568098427e0 2.484800930942742e0 2.0051338132984364e0 -9.726349462699976e-1 -9.644517103391628e-2 -2.042408170594038e0 5.609661897297425e1 -5.278942959085922e0 2.2560542620828077e0 1.5021035217691336e0 -3.8785201767576394e-1 -5.064953611325725e-1 -1.0991545972390049e0 1.645125238160909e0 1.3506993487011916e0 4.385155019244735e-1 -6.60244267244704e-1 1.6739601471307922e-1 7.280955310303102e-1 2.0581334422012816e0 -3.810069030246489e-1 1.2373924644875443e0 8.156078720923928e-1 -8.242159069049307e-3 -1.722537021207805e-1 7.016051180579724e-1 5.340216847714502e-1 -1.4094580512009877e-1 -4.567069555058146e-1 -8.497772938444455e-2 2.0028731930216348e-1 2.9580560189143235e-1 -1.8667358395586298e0 
<VARIANCE> 39
3.969336508871288e1 2.2573463267527607e1 4.380049973965744e1 3.397715728278392e1 4.463522308277332e1 3.623151740205378e1 3.782718168724491e1 2.9190459835189994e1 2.9873985503042633e1 2.3273858893421952e1 1.8213088077889147e1 1.626004594523687e1 2.085247211914657e1 2.2478805788587515e0 3.3115640441980814e0 3.1917453713934365e0 2.9155499922503068e0 3.9256225644811726e0 3.679330932947689e0 2.7008348264864455e0 2.7163735067689334e0 2.9041156469605127e0 2.4655095792338075e0 2.581383862085563e0 1.8427268466829596e0 3.591415743496933e0 8.43418146544469e-1 6.172775268227857e-1 6.492797921221751e-1 5.25001552674622e-1 4.9088980687757494e-1 6.719443243697458e-1 6.933123028329307e-1 6.268967072262117e-1 6.249516727676138e-1 5.801827083394847e-1 4.248828775713467e-1 4.238767094360086e-1 4.9557828539355864e-1 
<MIXTURE> 2 4.9904679059085677e-1
<MEAN> 39
-2.6684787997020905e1 -4.294862019460107e0 -2.528356187392715e0 2.3026710111613875e0 -3.488759019196886e0 -1.1095682916657553e1 -1.1256542332133401e0 5.7573912412062e0 2.4042096351816284e0 -3.05790710141228e0 4.338210972275069e-2 6.943393584980402e-2 5.536281014507631e1 -4.034606594025891e0 2.09844734608404e0 7.427495276049041e-1 -5.43956849352842e-1 -6.568876125569815e-1 6.342485193506795e-1 1.655072279463544e0 6.764268784245296e-1 -6.124241706495044e-1 -7.13874089454232e-1 2.7182161494374163e-1 6.572310584038406e-1 -8.540980983476306e-3 1.0323275240921443e0 1.6778247012185818e-1 -2.1869664460477392e-1 -1.647869168203337e-1 2.1345925822843878e-1 7.734652289515509e-1 -2.05379850410786e-1 -6.102298682965122e-1 -5.002640667218745e-1 2.1059358761936872e-1 1.1405140075118535e-1 -1.2641885843181822e-1 -1.1290645531660783e0 
<VARIANCE> 39
2.188284655254381e1 1.8030810009049365e1 3.1528236251801196e1 3.2785853980736796e1 5.47573407237219e1 3.6035384179044925e1 4.2072964125789e1 2.614931946429271e1 2.6815353615738722e1 2.0245841853763267e1 2.68096321171318e1 1.7364040089370608e1 1.9161622067548706e1 2.1936993270756986e0 2.345273379089096e0 2.5533445517815543e0 1.8299758607339331e0 2.6572995401932245e0 2.799746550003355e0 2.4602531977492808e0 2.6498087864819433e0 2.7837353397866558e0 2.210138746772863e0 2.2886222136160694e0 1.6421586620864965e0 1.8696708236460589e0 4.633553849749812e-1 4.126077176991578e-1 4.25958634020705e-1 3.296849183041589e-1 5.691052423407559e-1 4.508556174997027e-1 5.234957677220039e-1 4.6659542272915117e-1 5.153508095455648e-1 4.251207638001494e-1 4.5810959586879146e-1 4.119179244913952e-1 4.06650101620875e-1 
<TRANSP> 5
0e0 1e0 0e0 0e0 0e0
0e0 7.285031245561403e-1 2.714968754438041e-1 0e0 0e0
0e0 0e0 7.683270859046484e-1 2.316729140955851e-1 0e0
0e0 0e0 0e0 5.946354540547607e-1 4.053645459453166e-1
0e0 0e0 0e0 0e0 0e0 
<ENDHMM>
~h "n"
<BEGINHMM>
<NUMSTATES> 5
<STATE> 2
<NUMMIXES> 2
<MIXTURE> 1 5.112049497007294e-1
<MEAN> 39
3.853674788678895e0 -3.671721793562269e0 9.797054366120527e0 2.309358675711891e0 -9.838364547728196e0 -4.664281858167802e0 -4.056036685166506e0 -7.215072708397577e0 -9.80874307519313e0 -1.912979344228586e0 -2.734804368541877e0 -8.45080845293059e0 5.544233666577239e1 7.030354882707054e-2 1.1418824591546095e0 -2.780729865701295e-2 8.07937415336939e-1 4.0136106355930873e-1 -1.946601960687004e-1 7.351006124409369e-1 -8.149840318571391e-1 -6.122983210536567e-1 4.739108320801475e-1 -3.6811923987968415e-1 2.1494061063936715e-2 -1.0517441964446297e0 -1.7127724394902757e-1 -7.760574046912211e-2 -2.0355795246961145e-1 -1.6612973750559798e-1 2.5001242561330417e-1 9.31250072620513e-2 -1.1249022342260426e-1 3.6141249091879557e-1 3.1527909113938285e-1 -1.90064450010993e-1 -1.1343173984208821e-1 1.2346014461196377e-1 5.0780503397238275e-2 
<VARIANCE> 39
9.124639003884509e0 3.424481988935431e1 2.939950255036007e1 5.8021516786893834e1 4.81769997596634e1 4.316006774686087e1 5.5242014107089375e1 8.514645188746638e1 5.3675280201056765e1 6.122146430378245e1 6.679634680906591e1 4.5191201162129474e1 3.62023365997793e1 5.805308733393747e-1 1.7527565039176027e0 1.6820699605086726e0 2.6234707796283496e0 1.9737066634098324e0 2.1305273250064767e0 2.6612982616182785e0 4.161501054105337e0 3.285508913185721e0 2.943382775973508e0 2.243524258536289e0 1.8543031470674527e0 1.0855687608190145e0 1.354978383187805e-1 2.779710708088484e-1 3.6017805748776555e-1 5.573366164628143e-1 4.2327117850111773e-1 4.3880088690193386e-1 5.618216160731415e-1 7.828221792481156e-1 6.353469187671246e-1 5.040725039342776e-1 4.676083780024308e-1 3.58526553026683e-1 1.7219222150605432e-1 
<MIXTURE> 2 4.887950502992765e-1
<MEAN> 39
2.088916087611844e0 -1.63545677399697e0 6.603920954511235e0 -8.450464158124328e0 -1.4444877650985124e1 -9.28869023805024e0 -5.456180717485124e0 -1.630480082970478e1 -1.4653680596379239e1 -6.06594226613754e0 -1.318257245571154e1 -4.831402968607526e0 5.307978439490942e1 5.60142767110326e-1 1.2536490530641098e0 2.0204599472567728e-2 8.710551918217178e-1 -2.10522599662433e-1 -1.7646876658808716e-1 -1.3052534969996873e-1 -1.3398641371245972e0 6.198555709064048e-3 1.508307615413811e-1 -2.630675144478744e-1 4.500242659120653e-3 -9.107928335473496e-1 -2.1618050399657882e-1 -2.4448273004378185e-1 -1.7320929930318948e-1 1.4055514322053114e-1 3.7502865208952463e-1 -3.0434530353004797e-2 -1.0232215742385353e-1 6.053520921596117e-1 4.408697398500538e-2 -2.410111095626094e-1 2.2894016620522187e-1 -6.395806279373502e-2 1.2040641654825507e-1 
<VARIANCE> 39
1.4630999895420134e1 4.6790403348111155e1 2.7458784284800643e1 7.636670057094622e1 4.216426980990488e1 6.17732156984368e1 6.062800487853626e1 8.161303978007072e1 7.44343194735412e1 6.468544014493614e1 5.373784384395296e1 4.653205812692754e1 4.241639450770117e1 1.6265158473082666e0 2.4302137260943732e0 2.1911787153542854e0 3.515083612169764e0 2.827388251332818e0 3.6774172161347622e0 2.797275086519161e0 4.981088681045895e0 3.3570042354289735e0 3.677625676289345e0 3.0616682719020596e0 2.5310369643750805e0 2.1008108362257536e0 2.618631813686023e-1 3.5087282300386086e-1 4.4065820791500016e-1 7.941485322618949e-1 5.3861315219097e-1 7.434640156214825e-1 5.709590121266314e-1 1.0255337346622195e0 6.660589334973009e-1 6.372342058931226e-1 5.404161390934725e-1 4.9701619181049184e-1 2.0476240915743021e-1 
<STATE> 3
<NUMMIXES> 2
<MIXTURE> 1 5.388226726010884e-1
<MEAN> 39
3.2326869874307276e0 1.3251155965460264e0 9.321941195015116e0 4.923168147262603e0 -7.486396452182786e0 -6.400388286175002e0 -2.27791869943137e0 -9.602332014330573e0 -1.1523909508689975e1 -3.813631849081937e-1 -5.366357017920665e0 -8.180061755743552e0 5.082832642732561e1 -1.3110267823187884e0 8.505970733907088e-3 -3.270673354519798e-1 -2.4102173471422159e-1 1.4055073911929727e0 6.600485951301971e-1 -2.6951937989406405e-1 1.3550814655751453e0 1.082063242066475e0 -6.399865967668731e-1 1.7312716958167323e-1 4.225350658204398e-1 -1.9684432576580352e-1 -7.544776083957553e-1 -6.915166386270218e-1 -4.275608685679141e-1 -7.11603876543077e-1 1.9824911343461293e-1 3.449588346582439e-1 -2.8532151601843037e-1 8.531493097116097e-1 8.134263978858015e-1 -2.8349344386777636e-1 1.8376013643469558e-1 2.5159311167827175e-1 3.324945619419077e-1 
<VARIANCE> 39
1.5086952924777506e1 3.3455328031063466e1 2.339396340849916e1 3.941537008799743e1 4.7249324309771666e1 4.566413588350659e1 5.1837734741730124e1 5.486059043033006e1 5.846599164944854e1 6.817168316351463e1 5.9830687700342615e1 3.560709126881659e1 3.779009126434494e1 4.307562206964189e0 5.26103225378486e0 2.628818686565663e0 4.621029952450808e0 4.968830995712777e0 3.9549529780334436e0 5.1582002977372765e0 5.764412568259081e0 5.310903849669674e0 4.219710671196466e0 4.330468181961421e0 3.2560843496533347e0 5.058408706958549e0 5.360505561986434e-1 5.177627381285852e-1 4.837366372353029e-1 5.358168616429092e-1 8.080113460590894e-1 6.895972168857002e-1 7.955015870326081e-1 7.565571555316063e-1 8.573184744333024e-1 9.226466890738513e-1 7.179591914700313e-1 4.910442994653424e-1 3.532460822741559e-1 
<MIXTURE> 2 4.6117732739891654e-1
<MEAN> 39
2.982057657631387e0 1.0077246456748246e0 6.751714036870769e0 -4.612064199785678e0 -1.504741133140837e1 -1.102416640502014e1 -6.711968536205893e0 -1.815846397175532e1 -1.40063668967468e1 -7.0109238534596345e0 -1.3163752060653435e1 -3.4075747303392507e0 5.071361102304503e1 -9.806927048927107e-1 -8.488967782940752e-1 -2.5040553098144636e-1 1.1950464196893473e-1 1.4424728146136672e0 1.8061671898776577e-1 -4.643139476629302e-1 2.3333228072847914e0 -6.781843730078874e-3 -8.068185459814654e-1 6.941247855037347e-1 -4.5566745770998546e-1 6.133765640197985e-1 -7.574216589647372e-1 -7.244100111680735e-1 -4.6025473314911297e-1 -2.3916998241985485e-1 6.631872689745953e-1 4.042832547121303e-1 8.410309561814502e-2 1.270341270705503e0 2.983415903791432e-1 -5.665460998606493e-2 4.8994266901341593e-1 -7.397969049413254e-2 3.1778566637746264e-1 
<VARIANCE> 39
1.0384339160814275e1 3.616522077627244e1 2.0411542278348676e1 4.114248348618325e1 3.625772755236929e1 5.939526516167457e1 5.944262023241565e1 6.471044019001903e1 6.635077449858395e1 6.720699760442727e1 5.127259696158069e1 4.6947960414874174e1 2.8068660927874134e1 3.154551794179902e0 5.068039826234986e0 2.3121031669235235e0 5.464070958016932e0 4.987139247607042e0 5.123146954925371e0 4.69342145566955e0 9.037234753379476e0 4.526684241485615e0 4.484940220103655e0 4.293671205426055e0 3.455488217598195e0 4.290299837575589e0 4.47930159341569e-1 4.500837538988214e-1 4.0759691322835534e-1 5.553230723767547e-1 6.990163707581176e-1 7.84126985128534e-1 8.499455628293182e-1 1.040051938306313e0 8.53100938014385e-1 9.446774533412013e-1 7.134090494809369e-1 6.986123076601947e-1 3.450619362642209e-1 
<STATE> 4
<NUMMIXES> 2
<MIXTURE> 1 5.88108628004524e-1
<MEAN> 39
-6.928207520968289e0 -9.02656137706188e-2 4.374864496322352e0 3.0675596269682788e0 -2.1780033194479405e0 -3.1470286445860602e0 -1.2109838362126657e0 -2.98213199159534e0 -6.131742541336914e0 -4.936641187554434e0 -3.9792897378359253e0 -3.623102063074924e0 4.321578239417704e1 -2.1634395123709744e0 -5.044055949766783e-1 -1.248146699184133e0 -3.109573823603183e-1 6.979232503232581e-1 7.11505037385405e-1 5.076496750370237e-1 1.361506427749906e0 1.5832685755647469e0 6.037835960942475e-1 1.1259999695842002e0 7.508819519018354e-1 -9.373639352482521e-1 1.3852819949542464e-1 -1.5595365642427125e-1 -2.2465347095116998e-2 -2.933803113361209e-1 -3.656106514595864e-1 -1.8527255785251603e-1 -1.0196825929439288e-1 -1.807027839755212e-1 -4.7108872393445474e-2 1.8039864789108032e-1 -1.890026908857755e-2 2.8550030465780737e-2 3.5611261685584544e-1 
<VARIANCE> 39
3.232197816494716e1 3.571651202099684e1 3.341262762935315e1 3.7335793177072375e1 4.215622451119108e1 3.457395741050186e1 4.34875364197799e1 6.460731678188066e1 6.160419269145757e1 5.3088956358772236e1 4.1554964709690424e1 3.594661101350442e1 5.124729074464153e1 5.030033412591167e0 3.565583106092356e0 2.856529465313492e0 3.42365477019452e0 4.0223872559408065e0 3.5881821588892127e0 3.9243311556711262e0 5.284397530746767e0 5.15037463683858e0 4.6833966621261744e0 4.347262465721761e0 2.939005998245224e0 3.143730565423059e0 4.6694137012508335e-1 6.632323845249103e-1 5.26976831907333e-1 5.815251633806816e-1 6.467991138766377e-1 5.850535131178987e-1 7.217331053159654e-1 7.097197592172149e-1 8.244801250758808e-1 7.453439851500423e-1 6.51975958170957e-1 5.649487948525937e-1 6.583971821598551e-1 
<MIXTURE> 2 4.1189137199548287e-1
<MEAN> 39
-1.1567161924598146e-1 -1.0775308122072484e1 5.120340032403679e0 -7.995117284385512e0 -7.89746118591182e0 -6.821691054896208e0 -8.881144077912907e0 6.064512958161269e-1 -8.062760592959275e0 -7.928563354363627e0 -7.929446371712419e0 -5.594914321482431e0 5.989730839529945e1 -8.725911077977327e-1 -2.116085736504667e0 -1.8193120109872798e0 -1.2714373927724136e0 1.3909249047665966e0 1.2451421192847674e0 -5.434254622468581e-1 2.5196262386125383e0 1.246370734294063e0 -1.1950786700433527e0 1.0877374291827961e-1 -4.140621910031799e-2 1.4649549985903283e0 8.880127207789314e-2 4.7821529344833735e-1 -1.5661281982772815e-1 5.550190946317606e-1 1.9664268665137388e-2 1.402111416407787e-1 3.634187634833994e-1 -9.814148171167346e-1 -5.087924970585021e-4 2.893783506802841e-1 3.8815845594409384e-2 8.533677193035315e-3 -4.7480893107801403e-1 
<VARIANCE> 39
2.243434922027159e1 4.873285489497384e1 3.959029273581888e1 6.1568148989945236e1 4.767731072986862e1 6.2056929924873465e1 6.086736887056077e1 7.895567583832197e1 1.08673094412903e2 6.282547205985538e1 5.105014211602901e1 4.449614247841269e1 6.0157646188080435e1 1.620617311380215e0 4.583439784970279e0 2.6306833501470064e0 5.140114201590271e0 4.860309775193597e0 4.950823320497584e0 5.6257766600380865e0 7.843062607614245e0 6.669638174229009e0 4.685145349167573e0 4.733368616396494e0 3.670129381514899e0 4.470050282247316e0 2.0625924011365596e-1 4.489604005370954e-1 4.8276442950367615e-1 6.813696082646212e-1 6.450888290720431e-1 7.939943665075514e-1 9.438295967678225e-1 1.1645502784557662e0 9.693084941422749e-1 6.740395949157714e-1 6.582422291529878e-1 5.232799539020997e-1 3.711970392656957e-1 
<TRANSP> 5
0e0 1e0 0e0 0e0 0e0
0e0 7.576139049339924e-1 2.423860950660858e-1 0e0 0e0
0e0 0e0 5.904475788806725e-1 4.095524211193142e-1 0e0
0e0 0e0 0e0 6.831341686757074e-1 3.168658313245174e-1
0e0 0e0 0e0 0e0 0e0 
<ENDHMM>
~h "r"
<BEGINHMM>
<NUMSTATES> 5
<STATE> 2
<NUMMIXES> 2
<MIXTURE> 1 5.199336910296642e-1
<MEAN> 39
6.577494348095846e0 -1.2364778715878128e1 3.969658636012951e0 5.492626940675892e-1 -8.332137776197998e0 -1.0976337656734504e1 -2.0925611534403988e1 2.423792157293357e0 -1.3175549358370048e-1 -8.466941122555413e0 3.644967096172383e0 -1.4781784034407726e0 6.252689474829319e1 6.824434270797634e-1 -6.673242070801014e-1 -1.14746764679108e0 9.321128762097323e-1 1.1171005960224856e0 -1.0637111371874213e0 -1.3781648744014097e0 9.03270284612901e-1 1.1767290298051867e0 -1.577355096197407e-1 -6.021634917460792e-1 2.4764773277227364e-1 -1.5297820192980555e-1 -3.4757111901001525e-1 4.7560283266083586e-1 1.1952582284052855e-1 -2.62416043255784e-1 3.926713397820161e-2 2.5870815705036543e-1 5.582540727147831e-1 -2.631707057529712e-1 -2.4563336909648179e-1 3.178349462441414e-1 -1.7052489366245038e-1 -1.0046039669580717e-1 -1.2834671873463918e-1 
<VARIANCE> 39
1.9314919507854327e1 2.795077299956253e1 1.720477411681489e2 5.874165356287029e1 9.623800129830863e1 7.155645979966076e1 7.231102195585879e1 6.244590731272139e1 6.772950401040214e1 6.465058871920279e1 5.00160133507299e1 3.25577233034927e1 2.6212118092624678e1 1.626300679924008e0 1.1545010369850297e0 7.85139628071113e0 1.94077680863681e0 6.3879414397382135e0 3.249955231832949e0 3.5738568365971073e0 4.964365532273327e0 3.520588863459551e0 4.363890607175344e0 2.979949187777357e0 1.9717078009905098e0 8.230968940781633e-1 2.482680208159797e-1 1.8963482666219747e-1 9.219003744327416e-1 3.5791853528631906e-1 9.44002255127544e-1 5.338866549428234e-1 1.1165346389225435e0 5.654361989850034e-1 7.499146856209429e-1 6.240578439938688e-1 5.561591109088624e-1 3.395363059169793e-1 6.864057961089297e-2 
<MIXTURE> 2 4.8006630897034086e-1
<MEAN> 39
3.1194385216371074e0 -1.3463316044288144e1 2.586010591694065e0 -8.697045824743673e0 -1.2429604074058302e1 -2.4245929323138633e1 -8.634267225464086e0 1.7069325985066173e0 -1.754673175983392e1 3.0367721521828495e-1 -6.057544409130814e0 -8.229205919529434e0 6.0404361799591875e1 1.041588771331068e0 -9.185319773062407e-1 -2.1105803049172724e0 1.5235614777651896e0 1.6454002143943336e0 -2.21006835700138e0 -7.957332275563564e-1 2.415727714936633e0 4.0815834775480647e-1 -1.2502026998416582e0 -2.4487251955710468e-1 6.134051110691412e-2 -2.237380035603423e-1 -2.329221045430332e-1 4.379288190849588e-1 6.883655719687646e-3 -2.7427690198455895e-1 1.3141613808170133e-1 7.08670728935867e-1 -1.3328491785527405e-1 -4.268039798674989e-1 4.483786584219616e-1 -4.6092415698608565e-2 -1.7719264318812983e-1 2.1699309413847362e-1 -9.305015879745374e-2 
<VARIANCE> 39
1.4708724057793832e1 2.3013039970745183e1 1.2657038884135383e2 3.3022692076463926e1 8.295241819375022e1 6.883390291208661e1 6.917907772027235e1 5.297040951891444e1 4.225174884545629e1 4.29458464447953e1 3.952678964254333e1 2.7146964737638797e1 1.8542822601021726e1 1.1229113599226725e0 9.614425632946285e-1 5.828426741357742e0 2.0128107021841353e0 4.119246684925416e0 2.8371269551803557e0 3.5457131292059234e0 2.347609132899314e0 4.022860340177458e0 2.610239425896803e0 2.48685919553866e0 1.738624591509575e0 6.688174712770771e-1 2.651842612759583e-1 1.7079219674624602e-1 8.798131455831716e-1 2.7481665767856e-1 8.935708268180412e-1 5.909691459464217e-1 1.1107195499803855e0 4.601567832187502e-1 5.409413433513075e-1 5.63002873608831e-1 4.7476422067887475e-1 3.262400412374019e-1 6.560131844070419e-2 
<STATE> 3
<NUMMIXES> 2
<MIXTURE> 1 5.385280587956108e-1
<MEAN> 39
9.474782168260218e0 -1.1184167003460098e1 -5.459628073905222e0 -1.4217437057740017e0 -1.6700087412699616e0 -8.767879670738425e0 -2.380429370669674e1 1.7537430226423643e0 3.7609062879426842e0 -4.102498417735001e0 2.0947900927424405e0 -1.5854112206782638e0 6.155515261626472e1 -6.623394231890757e-2 -1.5654309494530547e-2 -2.9046096171882063e-1 -2.663674571317544e-1 -8.597035339847649e-2 2.7090239814981093e-1 5.245111265555034e-1 3.565244355510806e-1 -1.2374966210673843e-1 2.892418979987695e-1 2.1305120505054692e-1 -2.3184191608121826e-1 1.3183965435782881e-2 -2.6544555243051e-1 5.014243495672679e-2 5.238152071343881e-1 -1.168882337561995e-1 -4.093126918802052e-1 7.952566965096243e-2 6.119366134937249e-1 1.275802119547862e-2 -4.023219953316058e-1 -7.870418222602332e-2 1.9881332534322677e-1 -9.8585512620646e-2 2.523480592366687e-2 
<VARIANCE> 39
9.45212901527431e0 3.0277273451818388e1 8.539223856749175e1 5.425145126530488e1 7.387601843942403e1 6.2954321407683935e1 8.255214328317868e1 9.437061984922926e1 5.9236471634461665e1 5.549348300389959e1 4.780197504677829e1 3.496811152927062e1 2.4777748356764278e1 8.43092713882943e-1 1.0452753458392832e0 5.344302492782713e0 2.242706707593983e0 4.083730791373369e0 2.93782470293519e0 3.6168022861425597e0 3.2345197536894825e0 3.0543590822821995e0 3.27921403264619e0 2.709662883927891e0 1.7311019057402113e0 6.549118715281377e-1 8.741819422301929e-2 2.013027919343173e-1 1.883267236813641e-1 2.681529699029102e-1 2.9869248697395645e-1 3.7827205459370133e-1 5.265778936793e-1 5.48464395167104e-1 4.399498215737457e-1 3.94676514519626e-1 3.0775366542357463e-1 2.8586094329406586e-1 8.912832782057827e-2 
<MIXTURE> 2 4.6147194120439444e-1
<MEAN> 39
6.618387939994084e0 -1.3922031790367067e1 -7.370007340824442e0 -5.900989490906203e0 -4.845227128433115e0 -2.4408934060952003e1 -1.388861489535055e1 5.613474429952912e0 -1.2645831664331626e1 -3.075765215298762e0 -7.834362864491164e0 -8.400680902281273e0 5.877413734188231e1 -1.7548725477178886e-1 -4.1684054264485443e-1 1.0673606969078207e-1 -2.1913070659152066e-2 -3.406264335129814e-1 -1.264187525968604e-3 6.278020946484678e-1 7.009562567462772e-1 -2.5322742270887144e-1 -3.164149176858157e-1 -3.105462800637417e-1 -3.572070175972718e-2 2.18595850033301e-1 -3.29775140257442e-1 1.5962805711806385e-1 6.383580699675295e-1 -2.5171831615860907e-1 -5.288504244890047e-1 5.492885310378204e-1 5.683774270995656e-1 -5.249792524041548e-1 -2.3816326310549682e-1 2.1527260531944176e-1 1.1226593489818021e-1 -5.174912623352828e-2 2.9759809628298977e-2 
<VARIANCE> 39
7.306017149002869e0 2.5742733302686304e1 6.299700803277701e1 2.8754190446694544e1 5.995279485311571e1 6.1773125335781515e1 6.1113867288591166e1 6.0671494344327016e1 4.27313057444147e1 4.567587314806023e1 4.231638069464997e1 2.6142420092141876e1 1.8155101472343176e1 8.871921574422461e-1 1.0370961837697674e0 5.666007193653255e0 1.350787433758686e0 4.861208083390872e0 3.191054118244657e0 4.299008996122327e0 2.7615064291960403e0 3.7306489265255878e0 2.8356255190957556e0 2.1169292280835528e0 1.6903510553975398e0 7.69882038689389e-1 8.987980956468584e-2 2.4006910931769926e-1 2.419264442495389e-1 2.036497282419965e-1 3.490277406908254e-1 5.456205505779467e-1 4.010881624051135e-1 6.673204277909198e-1 3.753398721540182e-1 4.0078801469389597e-1 3.5694477860044677e-1 2.719188749891464e-1 1.0119610675210589e-1 
<STATE> 4
<NUMMIXES> 2
<MIXTURE> 1 4.7546928741223726e-1
<MEAN> 39
1.2020324860730167e0 -6.3526627876028225e0 -3.946272262477865e0 6.033051688830856e-1 -1.2092815356880744e-2 -7.247219466436039e0 -9.917162409984497e0 1.5848654066350243e0 -3.197996331389278e0 -4.9231308559516345e0 -4.173239389368974e0 -4.445106172495919e0 5.211695966689777e1 -2.7695378756256357e0 1.1558899514701844e0 2.3629910820398248e0 1.5086496317860942e0 -6.129904563328178e-2 9.50206241239724e-1 2.32658723780878e0 -5.760543481661257e-1 5.669859029074039e-1 6.906960593264883e-2 1.5531685518917662e-1 5.095614082769526e-1 -1.9020096165679696e0 -4.0851851671464334e-1 9.646366613784153e-2 -1.9880031145877733e-1 -3.557986982484824e-1 1.0936636737062925e-3 3.263688006444006e-1 2.1395394787918545e-1 3.338062268604589e-2 -5.376051715806475e-2 2.3161796452186684e-1 3.5727119939537366e-1 7.889222788158383e-2 -7.458042965613589e-2 
<VARIANCE> 39
5.020274136804402e1 4.001381625022729e1 7.207447917027146e1 6.79929571635934e1 1.0215434728432693e2 8.774748465030463e1 1.0709186970193022e2 7.950061174601849e1 9.225156629996617e1 6.388344000942864e1 5.698840992618848e1 4.143819224659481e1 8.135212871477552e1 4.500253191261816e0 5.512574185183557e0 5.344412184388477e0 5.387196972592942e0 5.69669185902207e0 6.2045453532797294e0 6.723342650938156e0 6.577908468721961e0 6.788699871447509e0 5.601701748295448e0 5.201454949286954e0 3.6321333582603246e0 3.2040973784697475e0 8.15917741243373e-1 9.153515552078952e-1 1.0230237490718164e0 8.829595151278204e-1 1.051978938786879e0 1.0433044819654045e0 1.3294704795906294e0 1.0850216225016687e0 9.733342077960077e-1 9.593019819551971e-1 7.25684531374045e-1 6.292007152486434e-1 6.365257748281291e-1 
<MIXTURE> 2 5.24530712587764e-1
<MEAN> 39
3.9302540679223306e0 -1.4621982803227041e1 3.2050079062878782e0 -3.1666137399800145e0 -1.1654753264173802e1 -1.8745750967266385e1 -1.106771530684394e1 5.600441435594399e0 -1.1183799016407562e1 -5.502620641583041e0 -7.044569116646937e-1 -4.964500219204466e0 6.1592506680163766e1 -1.387188291105421e0 4.626681233931182e-1 2.813712594292279e0 -1.393042804173085e0 -2.360043497941082e0 1.4226514058847868e0 2.4729887727327977e0 -1.435853076457082e0 -1.773601852818574e0 8.865095210499574e-1 6.014873954455571e-1 -7.616684165840757e-1 2.5701360126965167e-1 -3.4512504796265116e-2 5.695130882571654e-1 -1.7790860657572335e-1 -3.571966452734765e-1 4.5433742816995454e-1 7.553724158770924e-1 -4.486419114034606e-1 -9.435499489159344e-1 4.8065042407329023e-1 4.3070919499156446e-1 -3.688240459680572e-1 -1.419315443437505e-1 -2.3396899489443854e-1 
<VARIANCE> 39
1.7776288237356354e1 2.8907324709643802e1 1.0595194677499975e2 6.545129651658408e1 7.091182768983924e1 1.1558281184142828e2 9.383411862443718e1 5.953913734086187e1 1.1491139940770577e2 7.45870095282068e1 8.722958997330367e1 4.324207378499414e1 3.360264829254629e1 8.075517768917702e-1 1.3692366054574363e0 4.105796082022557e0 2.0050401445092643e0 4.108844498860219e0 3.1018055107826243e0 3.6214721239706273e0 4.569254280823387e0 4.222403697768444e0 4.218615717722506e0 3.2013397045247567e0 2.403166511268665e0 6.698069054278075e-1 1.0712687575525003e-1 2.1976150807528028e-1 3.0800938651087517e-1 3.0467792810982847e-1 4.5182869313568086e-1 6.82819275090935e-1 5.744281379651575e-1 6.456564834158137e-1 6.525529643942642e-1 5.002823451101611e-1 4.394814902920313e-1 3.4735616256771756e-1 6.86110784225103e-2 
<TRANSP> 5
0e0 1e0 0e0 0e0 0e0
0e0 4.794766698559398e-1 5.205233301442573e-1 0e0 0e0
0e0 0e0 7.569927712137849e-1 2.4300722878612863e-1 0e0
0e0 0e0 0e0 6.388396961971505e-1 3.6116030380288244e-1
0e0 0e0 0e0 0e0 0e0 
<ENDHMM>
~h "s"
<BEGINHMM>
<NUMSTATES> 5
<STATE> 2
<NUMMIXES> 2
<MIXTURE> 1 3.2539069365412665e-1
<MEAN> 39
-1.7667680243839325e1 5.144211431973656e0 3.9012826040804534e0 1.182402929006255e0 -1.6365496337075172e0 -7.257935213930807e0 -3.0717013775311717e0 -3.7841395977574463e0 -5.459320286079661e0 -5.66449237062128e0 -2.5921741326024232e0 -4.062839956285381e0 5.450663958189695e1 -5.403287391873322e0 6.683051554208453e-1 -2.172072840154601e0 1.9050553635248815e-1 1.8158980720100084e0 1.83747364105926e0 2.3564494541911145e0 2.0677451973956886e0 1.8270793617780103e0 9.504182386332296e-1 1.6630654696967129e0 8.890340632939472e-1 -1.2437004832856775e-1 4.600916492444742e-1 -7.863901585681939e-1 -5.711199123737992e-1 -6.271720950211844e-1 -5.513307504039907e-1 7.255638593603042e-2 -3.14361400257535e-1 1.1718700121966888e-1 1.053121101872189e-1 5.268020947437262e-1 1.1042886252561832e-1 1.5901066971051953e-1 -5.0100792188039284e-2 
<VARIANCE> 39
5.34994255383732e1 3.676106944355166e1 7.187977318633156e1 3.6148163554458044e1 6.344095515904458e1 5.936044048791959e1 5.0008122685962206e1 5.9121741576188086e1 4.792037871842174e1 3.873981102804957e1 3.105440086228284e1 2.467342607373353e1 4.508753581199517e1 5.8769456798634465e0 5.119876296063494e0 6.423861391592592e0 7.23369329313529e0 4.886150627337438e0 6.101150135856097e0 5.846009332709939e0 5.090268893176122e0 4.766737339817347e0 4.961312982594252e0 5.535977019020013e0 3.1752982923777227e0 2.2605975297186123e0 1.0897400938020554e0 8.143959851629016e-1 1.0689912566171378e0 7.614413929704843e-1 1.0013981351306445e0 1.0588708474125998e0 1.1073071764533253e0 1.0226238738059674e0 8.922140367246896e-1 9.052848529080544e-1 8.260731403018474e-1 6.334093796889603e-1 2.660465864150679e-1 
<MIXTURE> 2 6.746093063458735e-1
<MEAN> 39
-2.461937790030679e1 7.994183949403716e-1 -2.4822350678435914e0 -2.0982105383696052e0 -1.2136087998769798e0 -4.8737791970835795e0 4.182292516996715e-1 1.9942756713317686e0 -4.59003282610722e-1 -1.2832518200239451e0 1.4292993058130876e0 -7.733356756023745e-1 5.0988596387494304e1 -2.4053964082217103e0 3.875131725902567e-1 -1.4063179276728537e0 -6.466327605393903e-1 6.145795512278711e-2 4.380809252576385e-1 3.209878256106685e-1 2.137663611410785e-1 2.1414405088639368e-1 3.7562802283681396e-1 4.6876151908667113e-1 2.881404769327381e-1 6.323624162355932e-1 8.514826882822013e-1 -4.647744743441286e-2 8.595382948017483e-2 1.606510913468547e-1 -1.1343086652188294e-1 -3.715594660027024e-2 -3.834041025290942e-1 -3.565276090886694e-1 -1.9600649073102333e-1 -2.098175608826259e-2 -2.3109434859367395e-1 -1.5605224537526163e-1 -1.9501279176656092e-1 
<VARIANCE> 39
4.20372134082553e1 3.273288173402307e1 4.874009778706765e1 4.54282507085252e1 5.676867344348993e1 3.785492427212729e1 3.793222202290198e1 3.448459846493106e1 2.673209949868398e1 2.532575416696205e1 2.4766705065378872e1 1.9115545584515633e1 5.3488919721121874e1 3.1625994293426505e0 3.0433582654707445e0 3.3671178034202622e0 3.3561679922090617e0 2.5879300532635776e0 3.3587981255781285e0 2.789522347286543e0 3.1139642585766736e0 3.1937828038263962e0 2.838981587759047e0 2.406464898782386e0 2.0838810902025955e0 3.5866629412265505e0 9.087984800993464e-1 5.495327381707352e-1 6.305482856779308e-1 5.45779688050767e-1 6.881507216696892e-1 6.422651398234105e-1 6.51243849489709e-1 5.973452972095566e-1 5.852316147321547e-1 5.575789667001974e-1 5.413772840757485e-1 4.0804343872264015e-1 3.401047095490234e-1 
<STATE> 3
<NUMMIXES> 2
<MIXTURE> 1 5.074333396419631e-1
<MEAN> 39
-2.978203054391421e1 1.8344692877154498e0 -4.645405649563648e0 -4.199495984349742e0 4.847890230748418e-1 -5.40904121941587e0 -7.039551880307986e-1 2.086347685283637e0 -8.675864055201309e-1 -1.0051495097002547e0 8.211046843617232e-1 -2.7958338389440557e-1 5.4478304485322795e1 -3.294894227589082e-2 1.0499062181374207e-1 -1.537073263351066e-1 -8.989012262573846e-3 1.2178270104105465e-1 2.1551573720570721e-1 1.4811110181193052e-1 -3.2174369797926023e-3 7.712155946639758e-2 2.089746857920785e-1 3.4077340647889455e-2 3.064991421419158e-2 3.588457315914534e-2 5.166600806285068e-1 -1.1242622606780668e-1 2.861487740435084e-1 1.2818196836545545e-1 -3.3917378980651794e-2 -5.060643018158578e-2 -3.914955005017624e-2 -1.3463819892051712e-2 4.177606838855036e-2 5.150504327224054e-3 -5.698117349255584e-2 -1.0364198239830741e-1 -2.314506891287044e-2 
<VARIANCE> 39
1.414637109001535e1 2.078664482975073e1 4.051791389120722e1 5.181793343782205e1 4.68526829248443e1 3.4948374081224614e1 2.9419685870679956e1 2.9014874412884286e1 2.083355351439597e1 1.9272919209495026e1 1.8687727515669913e1 1.4883044594832766e1 2.2480354999381234e1 7.955077239333447e-1 1.0047680447227536e0 1.0708659945837995e0 1.1310391627045056e0 1.331853835359718e0 1.5940536727313874e0 1.4213846763108346e0 1.5789248052945781e0 1.5374298138552747e0 1.492065229832591e0 1.3793456912885618e0 1.3187971261748173e0 4.708795444488044e-1 3.2295685303982674e-1 2.0905830583873025e-1 2.4316039082321872e-1 2.511073759259253e-1 2.729047834424708e-1 2.861948137875984e-1 3.1910596057329826e-1 3.2239342878201777e-1 3.0654826247744416e-1 3.124231228198873e-1 2.861388946394383e-1 2.8660496440201483e-1 9.873064780037301e-2 
<MIXTURE> 2 4.9256666035804336e-1
<MEAN> 39
-2.7945572700642902e1 1.6653118721416067e0 -8.795601169524065e0 1.8074250888056038e0 -4.103862061396114e0 -1.2663268603002595e0 5.855157375276012e-1 4.660082810264001e-1 3.156134951556447e-2 -6.110614390098573e-2 2.641388953177083e0 -9.92108986482738e-1 5.1529324752330396e1 5.45258440434928e-2 -2.0185131885307983e-1 -1.529217781704802e-1 -2.7874113106732223e-1 -2.532444791057065e-1 4.059429547238871e-2 -2.0656900842584391e-1 -1.856230259755857e-1 -9.794509740467984e-2 -4.693212052030801e-2 -1.3611105194990822e-1 -2.7095286906005028e-2 1.5132330909729724e-1 6.213755274810313e-1 -4.328407711695705e-2 3.7919403561501597e-1 -1.6214843968674916e-1 -1.608671785318245e-1 -3.9729818679979495e-1 -1.9157005436096325e-1 -2.1990468172064895e-1 -1.7463334525086577e-1 -2.2031668067162305e-1 -2.0441117561470928e-1 -8.951535917138581e-2 1.6034974514227143e-1 
<VARIANCE> 39
1.1956868560876615e1 2.1995995184099172e1 2.8588117443835557e1 4.0147828167615444e1 3.995338423033736e1 2.8571541387415355e1 2.045900765686545e1 2.1103854712682697e1 1.823478769685094e1 1.7500243774722875e1 1.6745388163281376e1 1.3783574103139415e1 2.278941937386935e1 7.19270172051462e-1 9.235186733572025e-1 1.1131526889861727e0 1.2224286253063843e0 1.3515679362878616e0 1.5620821911407494e0 1.5504076825648085e0 1.5845252182395855e0 1.6142054842604912e0 1.5829334826041874e0 1.4454778670224275e0 1.3785151446343022e0 6.492320483715098e-1 3.679154333288258e-1 2.23662725833964e-1 2.691478020827973e-1 2.700290988520643e-1 3.1909288013423814e-1 3.770120196636149e-1 3.630148238951801e-1 3.661982283212154e-1 3.901053848749293e-1 3.5072202212926423e-1 3.286896164448086e-1 3.0167704058815326e-1 1.3489416761744616e-1 
<STATE> 4
<NUMMIXES> 2
<MIXTURE> 1 5.367704188700491e-1
<MEAN> 39
-1.955870229485959e1 -1.9234613893169554e0 -7.996762712513906e-1 -3.2820569247111644e0 -3.7699299849823315e-1 -7.3083402618816855e0 -2.345757775214611e0 2.381168882249578e0 -1.0080973515566742e-1 -1.0003548685944792e0 -6.479742684194779e-1 -1.3478889725908032e0 4.865848456457662e1 2.309253517653949e0 -4.245992774964245e-1 5.950843857284016e-1 4.941199938538023e-1 -5.929952448956045e-2 5.072847203674358e-1 -2.4642592692074894e-1 -1.9244111669435093e-1 1.39301223768635e-1 4.6435182359233446e-1 -9.208668730147239e-2 -2.157128361439626e-1 -1.6232353349629045e0 1.6785350717126565e-1 1.2455269368994663e-3 -4.378399235249602e-2 1.666944029032678e-1 -1.1047292669307879e-1 2.1658460375405325e-1 2.747021797963901e-2 -3.803772513162582e-2 3.462729174046034e-2 2.5403139991462324e-2 7.025813954945669e-2 -6.986258002873483e-2 -5.412953304543774e-2 
<VARIANCE> 39
7.433632190716435e1 3.355456348447699e1 3.2581993934881034e1 3.925106701833068e1 5.5269841982862125e1 5.251638348586162e1 5.092016036174536e1 4.231744967036536e1 4.040025147001967e1 3.806423769657043e1 3.1617191376297402e1 3.247703225420115e1 7.566195639234411e1 5.515259979484849e0 3.11851937294976e0 3.1242026503368012e0 3.002617096797609e0 4.343754926796755e0 4.687236885599899e0 4.1508508103538135e0 3.931924502281653e0 3.6243099094459046e0 3.329589016977813e0 2.9759357947236e0 2.944299507280051e0 3.697349745345109e0 1.4244050266884614e0 6.274439837275367e-1 5.620681327103599e-1 5.460505046039733e-1 8.102221027323881e-1 8.14785017237406e-1 9.251027324739391e-1 7.928452174894053e-1 7.521146460727468e-1 7.024029778057446e-1 5.910337452734018e-1 6.190232856011424e-1 7.352101747995483e-1 
<MIXTURE> 2 4.632295811299525e-1
<MEAN> 39
-2.529708507151515e1 1.3441688847362019e0 -6.40029149796465e0 -1.1240590885814963e-1 -3.7590097080519906e0 -2.4497936040038875e0 9.788979679805168e-1 -2.1375549690680404e-1 -5.053258978899019e-1 -9.82774365642156e-1 1.9776391789641317e0 -9.089823226612694e-1 5.274829202984849e1 3.666576649458398e0 6.075652534886263e-2 1.935530924788005e0 -8.728378821035524e-1 -1.4451732291525614e0 -1.8333039858181115e0 -1.0758294850651313e0 -1.265922141812393e0 -9.332276194425797e-1 -8.501204115528483e-1 -1.1716373944837983e0 -6.067458140901343e-1 9.254716811328361e-1 1.5021470648670165e0 -5.316725316325812e-1 6.773831107749689e-1 -5.118487104751399e-1 -8.009341624534169e-1 -1.025225862333984e0 -7.629708595212953e-1 -2.3237681980575603e-1 -2.833902346375327e-1 -1.1318009243425656e-1 -5.715843548353609e-1 -1.614624180586276e-1 5.400643758661376e-1 
<VARIANCE> 39
3.98074965229481e1 2.1923838878878684e1 3.371042981385949e1 3.786037456731248e1 3.995828441175605e1 3.836105181921009e1 2.258222164797675e1 2.4824437005593186e1 2.1061013607015145e1 2.019921997826251e1 2.1739557914564895e1 1.6275724352741214e1 3.6746334667191604e1 4.7563210797403155e0 2.744017657842268e0 2.5204592890087736e0 3.2197048342511674e0 3.6335249129404152e0 4.093237731335193e0 3.4879129588880895e0 3.0796174656575013e0 2.834223186482942e0 2.512975061926158e0 2.6415976777319723e0 2.1435326266738017e0 2.1337510299415854e0 6.265442109926505e-1 4.694876723071628e-1 4.999470638511451e-1 6.30172453262184e-1 5.809255309762921e-1 7.281942278795805e-1 5.978982564751587e-1 6.338735144551516e-1 6.254138414193897e-1 5.79754026787357e-1 6.387351999705977e-1 4.7204724125605996e-1 4.5155447321239994e-1 
<TRANSP> 5
0e0 1e0 0e0 0e0 0e0
0e0 6.754806154329244e-1 3.245193845670564e-1 0e0 0e0
0e0 0e0 8.267390159557878e-1 1.732609840441132e-1 0e0
0e0 0e0 0e0 6.236396910252546e-1 3.7636030897465295e-1
0e0 0e0 0e0 0e0 0e0 
<ENDHMM>
~h "t"
<BEGINHMM>
<NUMSTATES> 5
<STATE> 2
<NUMMIXES> 2
<MIXTURE> 1 5.071706102124439e-1
<MEAN> 39
-9.947331651810327e0 3.9767754084646776e0 7.026603641571942e0 2.876480501929269e0 -3.5604366945554156e0 -5.148188027440285e0 -5.454249243665945e0 -4.703865949036851e0 -4.1699252903746995e0 -2.738013945092173e0 -9.741815165655032e-1 -2.016116573364408e0 3.742918010206849e1 -2.428336694790956e0 -1.6799902584453594e-1 -2.275441138124558e0 -3.784894172474173e-2 2.1018479970158834e0 1.690322825178149e0 1.8046323887473275e0 1.6733169680559068e0 2.2674876269698956e0 1.3228132436836972e0 1.0823962272649343e0 1.0907673577818928e0 -2.4928934343349334e0 8.655817843286626e-2 -8.03640643663817e-1 8.84681426500514e-2 -8.857255657880432e-1 -5.505091044341796e-1 -1.1097283410645035e-2 -6.258105249843551e-2 1.5565176744726733e-1 -9.757655116414797e-2 2.9775565073094673e-1 6.451463825803126e-2 -8.036113080812811e-2 1.4032004947328838e0 
<VARIANCE> 39
3.39101897091374e1 3.643459266742255e1 4.769211832409885e1 4.130960647463362e1 4.569807921730012e1 3.446364307829395e1 3.302531802888275e1 3.2301376767146294e1 3.283584628052547e1 3.1189589267566287e1 2.7519930517221475e1 2.4013029769942847e1 6.0010869159797494e1 4.159786498602356e0 7.139641684354972e0 6.984628121025498e0 5.6488738171747555e0 5.766645517736611e0 4.0412862032586245e0 4.325034816421276e0 5.469102599885677e0 5.252298057865682e0 4.413290223570479e0 5.418028313174267e0 3.0133899959195016e0 1.0364652980883072e1 5.411040582887735e-1 1.1661341443464108e0 1.3816228455410926e0 8.594131587578218e-1 1.1478582375326354e0 8.87877342373371e-1 7.492929839520786e-1 7.910237491530896e-1 8.143492976097233e-1 8.118178765725457e-1 8.822048374072543e-1 5.758410820483912e-1 1.9186394438917058e0 
<MIXTURE> 2 4.928293897875568e-1
<MEAN> 39
-5.045415558659916e0 6.596252784724776e0 8.443647914434452e0 2.6741009624137977e0 -7.415804426741256e0 -8.625339515304786e0 -7.272528619191153e0 -8.448558116752872e0 -8.521134047947251e0 -5.781894907735693e0 -4.817788597446254e0 -4.8252135081619905e0 3.8904447996360275e1 -1.56331803520479e0 5.325940572950986e-1 -3.063674884298956e0 1.1097130609024826e0 2.6418036284721818e0 1.0605337176684293e0 7.402199733616395e-1 1.0303956715080642e0 1.218808517202161e0 -4.700851296283775e-1 5.836239960897552e-1 6.432884175063724e-2 -2.7139884082190773e0 -5.814689591122257e-1 -1.1401708641507264e0 2.216237583900444e-1 -1.2022990710996861e0 -3.482777184549777e-1 3.255012508397617e-1 9.39983437256201e-2 3.399870170894108e-1 2.774137554574197e-1 8.017336600088331e-1 3.311049093127714e-1 3.408451149721207e-1 1.3762102364314577e0 
<VARIANCE> 39
2.1303041829175083e1 3.8813679418223074e1 3.976791633182462e1 4.279796979970335e1 5.235290330322218e1 3.5596789334671556e1 3.912730483927268e1 3.965066070403809e1 3.913820796916812e1 4.546446231968428e1 3.8657213202397145e1 3.685009468894175e1 3.608399857222798e1 3.8303449278660575e0 8.166329859450142e0 6.690197795907245e0 8.506223779823609e0 6.13422695943844e0 4.357459138496644e0 4.508684707223807e0 5.862937431808806e0 5.172888073109504e0 6.231293689998657e0 6.028361609882114e0 3.8690721494699916e0 1.1349916641826383e1 5.026987327961097e-1 1.1386155408081677e0 9.305752958326958e-1 8.95674525334462e-1 1.0936101011978472e0 8.191007613563235e-1 9.527195289377747e-1 8.952129340726837e-1 9.590723751841373e-1 1.0407596207118177e0 9.919090937090096e-1 7.321821248704301e-1 1.3933531472381588e0 
<STATE> 3
<NUMMIXES> 2
<MIXTURE> 1 5.293277955284882e-1
<MEAN> 39
-1.495547281248058e1 1.6345062063223863e0 1.453464367012455e0 1.1795070982977307e0 -5.947753395241406e-1 -9.501025572225017e-1 -2.905333647614975e-1 4.338616887048169e-1 1.4715786561690454e0 1.5508691176806242e0 2.034524726797514e0 1.7337440832015655e-1 3.2474378836778776e1 -9.853444672723854e-1 -1.1080953271864937e0 -8.583972109287854e-1 -7.75130618470838e-1 3.753902015206571e-1 6.302528061825339e-1 8.948945853270741e-1 1.0368731636926918e0 1.019079804119303e0 8.118406579913965e-1 6.485931652343184e-1 2.9328342455005657e-1 7.710883048148856e-1 3.446955541323057e-1 -1.8036823363121884e-1 4.8169947572031824e-1 -4.106270311707163e-1 -5.601740682331932e-1 -5.171913944679805e-1 -3.8408064371114775e-1 -5.385658420944432e-1 -7.0970538779179e-1 -3.433587406357411e-1 -3.493074014944617e-1 -3.094575822076807e-1 1.6251777503966405e0 
<VARIANCE> 39
9.405605840210711e0 1.6503766913806857e1 1.4340827503152383e1 1.5944080824509363e1 1.795442483892018e1 1.7817580652422386e1 1.865878868427012e1 1.7145322203432162e1 1.853157643956568e1 1.684232665054714e1 1.4970036938450097e1 1.4437542310349398e1 4.052896603962358e1 2.777078728529413e0 4.038652814386035e0 2.68172833011849e0 3.390300139276931e0 2.837905198617139e0 2.756117849333873e0 3.2759655607002394e0 3.4804944431516778e0 3.380666084533871e0 3.0386849083509073e0 2.7567002669560994e0 2.320629705399789e0 1.1485654561858144e1 4.938739453677951e-1 6.46229866984851e-1 6.56585199491865e-1 5.935526276229283e-1 6.618485538771735e-1 5.483951236523672e-1 5.621444310404557e-1 6.662688755505422e-1 6.710084334237992e-1 5.471240792082294e-1 5.453953348432337e-1 4.185793887704322e-1 1.9424509291347642e0 
<MIXTURE> 2 4.7067220447151203e-1
<MEAN> 39
-1.4685187244705622e1 -4.319807428777127e0 2.158122195240999e0 -4.162524171483336e0 -1.740755088591177e0 -1.8848182887438238e0 -2.3235620634022043e0 -9.501885706836353e-1 -9.812382900315498e-1 3.692159944622417e-1 1.1760408326705194e0 -1.2898986752760773e0 4.40735328798181e1 -1.2550640352862548e0 -1.4616720457264476e0 -2.0051524468790696e-1 -2.475651858544285e0 -8.419309724675422e-1 -9.291006700143325e-1 -3.1905806761993893e-1 -1.457167013557194e-1 -9.648989324811985e-1 -8.938469684845823e-2 2.5120760312989626e-1 -1.8590410737068638e-1 6.205439886025386e0 -1.6322940550954948e-1 7.571582338684868e-1 3.965782865145038e-1 3.032043133481202e-1 -3.1838384873010467e-1 -3.4160862840860945e-1 2.188730614580262e-1 2.857837882945663e-2 -2.7474870074649355e-1 -4.551617954348047e-2 -1.2219981229626923e-2 2.4822334813670775e-2 1.9212787383331562e-1 
<VARIANCE> 39
2.6389264769593183e1 4.66541489201381e1 2.80980584744338e1 4.476823324692438e1 3.3247685791329e1 3.1153345793693475e1 2.9129488773997505e1 3.264137074641104e1 3.280859576748784e1 2.2580244246912414e1 1.9462433140712086e1 1.7301623980832915e1 1.4552538791235975e2 3.916601099425052e0 4.405849695676627e0 3.5422590775096765e0 3.743323140147818e0 3.4038148419296355e0 3.423470304737969e0 4.002763290943438e0 3.784429287969116e0 3.531979166178073e0 3.2797995739842634e0 2.9015569321418244e0 2.566238674860754e0 1.1993922109886086e1 5.196165322733566e-1 9.391995627843176e-1 6.867127846218708e-1 1.027614819384126e0 7.349690266399785e-1 6.886323858373149e-1 7.525431680307209e-1 7.865401798635909e-1 7.208557266761958e-1 6.223333673467112e-1 5.368603786602217e-1 4.1500474590750003e-1 3.1673336649354584e0 
<STATE> 4
<NUMMIXES> 2
<MIXTURE> 1 4.7091679702635936e-1
<MEAN> 39
-2.1693013805723936e1 -8.963529662101257e-1 1.8925281074853457e0 -8.216277854627254e0 -3.75180938415253e0 -5.536863948717223e0 -1.796618061042152e-1 2.565121507083019e-1 -3.228946720172827e0 1.0576347036646438e0 3.3069695274617796e0 -7.275620946599947e-1 5.8663252467869846e1 -1.3071203387982226e0 8.472423709511614e-1 1.0194111535933617e0 4.8753454712858113e-1 -7.603895460105243e-1 -6.492718491550455e-1 1.3775655666584323e0 7.907342658718256e-1 -3.272598985813064e-1 1.032857564175006e-1 3.844314357062482e-1 3.117253574229483e-1 1.3843737148327198e0 9.974704440804364e-1 4.525159231189679e-2 4.6343317937227435e-1 1.0104300831706023e0 1.6204017538258542e-3 2.4777480265079874e-1 2.493681504884076e-2 -2.687784945017532e-2 1.2182210215634388e-1 -1.91471046368634e-1 -3.056043531331756e-1 -5.553513271877784e-2 -1.9526133388755735e0 
<VARIANCE> 39
2.8643349704310992e1 2.6636865283377272e1 3.9999892154163476e1 2.5643661759490485e1 2.4835584139986985e1 2.620067558274199e1 3.474082284142598e1 3.4382934594469894e1 2.4712376690018072e1 2.8922735684262175e1 2.099939773295542e1 1.9551431157664894e1 3.7647010960368334e1 3.775548479054417e0 3.2439237451197824e0 3.00939789165004e0 3.810769820849391e0 2.7077261578198977e0 3.4716611311554177e0 2.781122545545329e0 3.2411866049267664e0 3.0691389988771234e0 2.7228711569234623e0 2.2006992241166197e0 1.9387981599841055e0 9.556494068019473e0 7.11982591749462e-1 8.090677465583082e-1 6.598712508608089e-1 6.963300664960308e-1 6.005911659554051e-1 5.584881885313339e-1 7.169159849231274e-1 6.248546672585958e-1 6.223304041550396e-1 5.533671780090377e-1 5.206008271461597e-1 4.414773497611882e-1 1.0627958302008818e0 
<MIXTURE> 2 5.290832029736422e-1
<MEAN> 39
-1.76439148298253e1 -2.197911736962174e0 5.359076961569124e0 -4.275109375118251e0 -5.812587319380293e0 -4.828948216301677e0 3.187513266092969e0 7.218776728624093e-1 -3.1502387884087533e0 9.191178782358881e-1 2.2105461378028877e0 -5.754327822613818e-1 5.1955564883255754e1 2.0637532409997155e0 -5.309610409195422e-1 1.0648267978238997e0 8.671370079059975e-1 -9.836598149612237e-1 -3.5210332444873066e-1 -1.9062874561602852e-1 -3.9564838203184544e-1 -7.443019305551927e-1 -8.187985265994946e-1 -9.152815660343175e-1 -3.2417523224421213e-1 -5.320332254141026e-1 9.155543391445787e-1 -9.625024511678902e-2 6.797331651616716e-2 -1.507401525953474e-1 -2.715402392708365e-1 -3.376693130755496e-1 -9.451005808594545e-1 -5.135615817453323e-1 -3.693149202528439e-1 -3.2776211610211486e-1 -4.163066289077856e-1 -2.4617626411289711e-1 9.624246599469383e-2 
<VARIANCE> 39
6.1375578887101426e1 2.7305499679175142e1 3.0716063758431346e1 3.55875510371999e1 3.798322380391246e1 3.279418357072733e1 3.9440536998904065e1 5.236948919682764e1 3.685692144850635e1 3.488948599567775e1 2.891344185033978e1 2.3738962776848357e1 9.537237310380624e1 4.197837456133195e0 2.2985415340508553e0 3.791064961589673e0 3.7087080220597266e0 3.6526804526409067e0 3.283676267620773e0 3.476737115559775e0 3.9155977959407933e0 3.7089787328594532e0 3.282082705079654e0 2.7799315500822614e0 2.170061960182494e0 3.720588822466683e0 1.0464450600091317e0 6.012118050838047e-1 5.156643568061251e-1 5.912006422897588e-1 7.580899127554008e-1 8.577302772372681e-1 8.533423453404582e-1 7.470203112111535e-1 7.783086791553108e-1 7.029409533098194e-1 7.71781709548259e-1 4.854930259093543e-1 8.438661113380923e-1 
<TRANSP> 5
0e0 1e0 0e0 0e0 0e0
0e0 6.04748869100308e-1 3.9525113089969577e-1 0e0 0e0
0e0 0e0 7.208503275857744e-1 2.7914967241440836e-1 0e0
0e0 0e0 0e0 7.279630098821083e-1 2.720369901180013e-1
0e0 0e0 0e0 0e0 0e0 
<ENDHMM>
~h "v"
<BEGINHMM>
<NUMSTATES> 5
<STATE> 2
<NUMMIXES> 2
<MIXTURE> 1 4.9197688350717633e-1
<MEAN> 39
1.785948745857388e0 -1.5732428529703116e1 2.6898814778948616e0 -9.747769932144886e0 -9.080375987669438e0 -5.760420274017358e0 -9.396817205636752e0 5.694341271073527e0 5.09852517403335e0 -2.755146761255587e-1 -3.6313012388396437e0 -1.3244627346993662e1 6.851304947701661e1 5.783150623809824e-1 3.2573400649697676e-1 7.124973863521981e-2 4.851179475652088e-1 1.8182459717737373e-1 -1.8335825213629756e-2 -6.238710911553472e-1 -7.484182200343761e-1 -4.612862500213376e-1 5.965080941358649e-1 1.1178744219466665e0 4.558715172028756e-3 -8.231965873460098e-1 2.0865613060745476e-2 5.327689313938693e-1 5.0630053849819466e-2 4.037388883213668e-1 3.454089864062363e-1 5.31219871700329e-2 -1.9401439465203987e-1 -6.540151158065756e-1 -4.330093428315236e-1 1.069299971980265e-1 3.29239291152706e-1 2.9282493042707197e-1 -5.650794442056907e-1 
<VARIANCE> 39
1.2212240677155467e1 2.1800889952775265e1 3.783953927970475e1 2.830720679028181e1 3.597094091273378e1 4.672406138886518e1 4.702555320061947e1 5.673276186149089e1 5.6159885447278214e1 5.9500635949848245e1 5.931103368449304e1 3.93181468550859e1 2.5568599819546762e1 2.987503588262053e-1 1.109955531839989e0 8.560807240511085e-1 9.261816641883931e-1 9.70841182977879e-1 1.7294765859148153e0 2.2849934212906393e0 2.2260919551466034e0 1.4753089261336778e0 1.6957213632396315e0 2.120765135396157e0 1.6350853859554324e0 7.957541700283963e-1 8.297992322123818e-2 1.5805561277196872e-1 1.7797234826419164e-1 1.8995361747990214e-1 2.7115785234148904e-1 2.6903660469978796e-1 2.787457991777261e-1 2.955294392501313e-1 2.7624404907810723e-1 2.9467198740087164e-1 3.1227886233087304e-1 2.2244916302165818e-1 1.1576950005488551e-1 
<MIXTURE> 2 5.080231164928276e-1
<MEAN> 39
-2.190605123610967e0 -1.6291742550512517e1 -1.122859703478716e0 -1.5763440821911754e1 -1.2419661619230107e1 -1.1095604005220144e1 8.97121256507408e-1 -1.3778638855567557e-1 -9.555420521219963e0 -1.0342905287892092e1 -1.4303377818178157e1 -4.602674747291661e0 6.648219139702194e1 4.800314530747858e-1 1.9365827900987945e-1 1.0277798660028532e-1 3.439558962527298e-1 1.579195134829065e-1 -4.351562969308986e-1 -6.120067711835642e-1 -4.511919695036133e-2 3.1063885268890656e-1 2.9712142168549355e-1 -3.0822059580258765e-1 -4.5787565579341954e-1 -6.15017492791627e-1 8.92343093554203e-2 5.586937605509804e-1 1.0246034112383588e-1 5.999558396985598e-1 1.6777171168235291e-1 -2.0203962723674415e-1 -7.35708764777943e-1 -4.0096702034705256e-1 2.2088982337767551e-1 2.3794980684983089e-1 2.1582567928954566e-1 -5.457456951711608e-2 -5.730838589265126e-1 
<VARIANCE> 39
9.90727552900099e0 2.2709097233909063e1 2.74310181424941e1 3.311585710124206e1 4.35976345180874e1 3.890343655459931e1 4.374085378196082e1 4.554778874027092e1 4.538948835915147e1 3.719687417341906e1 2.803638899989477e1 2.7421595128434433e1 2.0412939197270134e1 3.214869599062684e-1 1.3722969503919558e0 7.844494601133816e-1 9.445227869669925e-1 2.0199676470108727e0 2.700741498456499e0 2.4982017845320854e0 1.2938211229436964e0 1.7578759480353552e0 1.7414936423144816e0 1.0296913720489442e0 1.25621774738317e0 8.287050323413293e-1 8.18238568286169e-2 1.6968210370511e-1 1.6150701447314364e-1 3.441721096442776e-1 4.082747440197013e-1 3.4335266510093637e-1 3.09505205511303e-1 3.506578222003854e-1 2.998915695820804e-1 3.003716137832377e-1 2.5224478136419043e-1 2.732476174382009e-1 1.25888793496784e-1 
<STATE> 3
<NUMMIXES> 2
<MIXTURE> 1 5.164256803713457e-1
<MEAN> 39
4.307127807978376e0 -1.063135227762556e1 3.231249494221128e0 -3.753116942329123e0 -6.172071108283504e0 -6.574747695997523e0 -1.2496317796066656e1 -3.1648987744304485e-1 -9.771749225038234e-2 1.0265388834092681e0 3.102546892783555e0 -1.021680339084229e1 6.087248976738835e1 -4.521861574938809e-1 2.925208882127243e0 3.356684821886736e-1 2.3022079919459055e0 1.8077674066272815e0 7.611600698319262e-1 -1.4849681204333992e-2 -2.417200633228599e0 -1.77320706200868e0 -1.1987173972836218e-2 7.97335900613874e-1 1.280517277331134e0 -3.0990788596499654e0 -6.874506780456106e-1 1.531578767509897e-1 -1.2911719719098306e-2 -2.3320090069496178e-2 1.4733250696945183e-1 3.359970698871745e-1 7.297057790724577e-1 2.7597784999064673e-1 1.12066976461525e-1 -4.0149350686632446e-1 -6.631174073655214e-1 7.23172247620914e-2 2.2549348146149548e-2 
<VARIANCE> 39
8.971865173014308e0 3.032309805365479e1 3.091934968250914e1 3.781610615846076e1 3.114346633974955e1 4.3830027391545045e1 3.489099437644114e1 6.601985961529296e1 4.480176544678213e1 5.1187278177846764e1 5.409314488512879e1 3.9122671971147554e1 3.508896357030244e1 2.300566271580256e0 2.367843662505166e0 2.253278450464344e0 2.1020318015245163e0 2.5905881097174537e0 3.4802365075543573e0 3.945558979203192e0 3.3310495586687257e0 3.8227318011492715e0 3.0626781675523342e0 4.146597019719342e0 2.534218330998064e0 1.365853443103152e0 3.449574666989733e-1 5.2024571369187e-1 2.570167175527481e-1 4.5431288219637744e-1 5.162098729301319e-1 5.404962866732465e-1 4.586235263741534e-1 7.412659949631434e-1 5.652150784708292e-1 4.187758142472452e-1 4.267761100327554e-1 4.0635225428185656e-1 4.6158516595311533e-1 
<MIXTURE> 2 4.835743196286543e-1
<MEAN> 39
7.871106282889473e-1 -1.0734764174349648e1 1.0231045541821786e0 -9.434288841789423e0 -1.156286388850855e1 -1.5031390491667846e1 -6.869119688313625e0 -4.242616953300912e0 -7.780554534634531e0 -6.747194317584219e0 -1.3775808606113905e1 -7.8514567043743995e0 5.839706115635537e1 -3.704681437505009e-1 3.341457375110626e0 1.2944208996131588e0 3.4345933158877937e0 1.6057956606198656e0 1.8674048419494257e-1 -2.536832504496795e0 -2.219383450091827e0 -1.897594190002375e-2 4.032611538849435e-1 1.00613890083424e0 -6.493800923463934e-1 -3.4996111417044413e0 -7.520079407552196e-1 1.408731274529038e-1 1.298681904057081e-2 2.993857230763366e-1 4.6770097092395035e-1 7.995923587145569e-1 4.4896041155248645e-1 -3.341699763236843e-2 -2.619224051360639e-1 -3.3800157073816073e-1 3.921693026193101e-1 2.60839218534237e-1 -5.556329311554922e-2 
<VARIANCE> 39
8.610073667128317e0 3.653978780726305e1 3.0897593393059502e1 4.391385041985606e1 4.661541806413163e1 3.3526971681444905e1 5.773586876810525e1 4.489586167565453e1 3.7666478591357105e1 4.291977430897535e1 2.990334832850226e1 3.0498564091475444e1 3.7152529253560715e1 2.243547393407956e0 2.5130276196215107e0 2.141519671067549e0 2.9178054392437627e0 3.4778026326721156e0 3.5714886850044265e0 3.8487088756785193e0 3.5365708904359803e0 3.222443161698306e0 3.588123070631249e0 2.588969079056897e0 3.0222591182972343e0 1.3277890556906744e0 3.146654057207974e-1 7.105508173054811e-1 3.5942159877990226e-1 9.303786617803543e-1 7.956058987031229e-1 5.150534807604872e-1 8.319545574464011e-1 7.718587068609506e-1 5.736982725883931e-1 5.526438403619109e-1 4.4475016444415794e-1 4.439913008207337e-1 5.926990609201672e-1 
<STATE> 4
<NUMMIXES> 2
<MIXTURE> 1 5.630401500805627e-1
<MEAN> 39
-9.027445264726266e0 -2.70690767470788e0 3.470468164588432e0 2.3144289625130305e0 -1.340741443806341e0 -3.1084420011886467e0 -1.8963951187064743e0 -1.3503054778650525e0 -3.0146908077375367e0 -3.5017029497305736e0 -2.2833184464638947e0 -3.3761912171141795e0 4.6852765157940425e1 -1.7592686409658795e0 2.721748534899664e-1 -1.5864969370213844e-1 4.135373626475422e-1 7.628620956993359e-1 1.0936853085738512e0 9.845415470024526e-1 4.0054455065231664e-1 3.97856860589401e-1 2.4932845423472064e-1 4.4324386260952686e-1 7.895452954109798e-1 -1.2204866564318289e0 2.639535328994255e-1 -5.028109005324254e-1 -2.6195726269576425e-1 -5.31676305917767e-1 -4.216655802943489e-1 -2.368784905540486e-1 -7.535190396787594e-2 2.5232755912551746e-1 1.5552239687650934e-1 9.882716270763456e-2 3.302869326090386e-4 -1.2450123373365934e-1 4.672655802823412e-1 
<VARIANCE> 39
5.535960520321565e1 3.213545379916043e1 2.65169792064057e1 2.709257056950367e1 2.9123057827642942e1 2.90190064565002e1 3.8034919140751626e1 4.2038873219265405e1 3.9882333050632354e1 3.402435157423139e1 3.294162763162053e1 2.5046804797620183e1 4.415189822869979e1 7.308109016768708e0 4.446338804225457e0 2.744334618050443e0 3.6496350606889103e0 3.612016643207668e0 3.7408704607345866e0 3.9676484276711146e0 3.8300144808165735e0 4.085307941789836e0 3.7162537292886606e0 4.505658597982246e0 2.6214890472744226e0 2.7113618516321596e0 8.920780920741108e-1 9.834928064561101e-1 5.596556029052668e-1 7.562390654904396e-1 6.538961800258593e-1 6.156250714044459e-1 7.716618298643678e-1 8.42416291065125e-1 7.472767132321085e-1 6.048686641138019e-1 6.00259469213337e-1 4.5835232064673986e-1 6.313582182826992e-1 
<MIXTURE> 2 4.369598499194368e-1
<MEAN> 39
-1.5830899093253525e0 -3.689314736417216e0 2.8704429050673457e0 -1.1886267638494723e0 -5.008283985031718e0 -7.840136024125149e0 -1.0874054654650877e1 -8.210807739045546e0 -6.938476398649452e0 -4.391139842190158e0 -4.742241630247777e0 -8.36584791465371e0 5.2384590383075555e1 1.4169100540490467e-1 -3.253287214897093e-1 -2.2332504065468478e-1 -7.554466839952656e-1 -8.557771878937519e-1 -2.9014080595186714e-1 1.7427818509501983e-1 6.682919657899683e-1 1.0388657107736192e-1 -4.2538338752546656e-1 -1.8625297641531516e-1 1.5973477480101766e-1 5.971840882725987e-1 2.4377684927174637e-1 -9.115838313443426e-1 -1.8349821610555844e-1 -1.0009240351711781e0 -5.589967043912427e-1 -2.102650440140593e-1 3.401630403416599e-1 8.740904800821658e-1 3.710690445370004e-1 -4.8240668032823945e-2 -3.5866813336672376e-1 4.9003448725285295e-2 9.739219054943808e-1 
<VARIANCE> 39
3.955433506540567e1 2.8507262559851064e1 2.0636481619854898e1 2.638174882569032e1 2.923273360451043e1 4.846304281698402e1 4.145383669848793e1 4.374456102209231e1 3.9892023440745156e1 5.804407095043048e1 7.870789430234396e1 3.104942945145106e1 3.77126018763106e1 2.837615182168273e0 4.419876292488028e0 1.9381918287929576e0 4.956557668405347e0 3.0367347587890503e0 2.8048843354594997e0 3.05198940273018e0 4.2770076923076e0 3.318197329673953e0 2.8694259319823754e0 2.6481133472551277e0 2.0953037793278297e0 3.782902956082162e0 5.708798580167491e-1 8.72766279693182e-1 5.667131478121323e-1 1.0105705594217367e0 7.285783919258653e-1 6.729826163814114e-1 1.0311118542439708e0 9.373572856331912e-1 8.601483565299443e-1 8.374629542858674e-1 6.74753305227501e-1 7.114231646422983e-1 7.805667031004477e-1 
<TRANSP> 5
0e0 1e0 0e0 0e0 0e0
0e0 7.409108155624728e-1 2.5908918443767626e-1 0e0 0e0
0e0 0e0 6.539451938593138e-1 3.460548061407125e-1 0e0
0e0 0e0 0e0 7.614254333334035e-1 2.3857456666642587e-1
0e0 0e0 0e0 0e0 0e0 
<ENDHMM>
~h "w"
<BEGINHMM>
<NUMSTATES> 5
<STATE> 2
<NUMMIXES> 2
<MIXTURE> 1 5.310455335280624e-1
<MEAN> 39
6.614885101814369e0 5.636305964311984e0 2.65469423302877e0 -9.440692615172122e0 -1.328641180605345e1 -3.2213083222772494e0 -3.6623052618806535e0 -3.101641900085449e0 -6.133483385090063e0 -3.183825422701471e0 -1.0545803817704897e0 -7.229270015219249e0 4.991213032302274e1 8.529567942962185e-1 -3.943643080624985e-1 2.399635208196728e-1 -1.3080289046874447e0 -1.352092063907099e0 -7.919486401692306e-2 -1.0955638376490775e-2 6.220414861428074e-1 4.3435958808445985e-1 2.180916622714111e-1 2.5304470168552284e-1 -5.486216957809226e-1 1.2330855201206499e0 -2.4690514065115401e-1 -4.332452718210515e-1 -1.975660153210108e-1 -1.5780517075488318e-1 2.392634823625381e-1 3.531780015765102e-1 -2.5097466646789374e-2 1.35320668021911e-1 1.3825857416723856e-2 -1.5350902958751228e-1 3.921202048701018e-2 3.8454948975439426e-2 1.9539860291498726e-1 
<VARIANCE> 39
2.9081800808633865e1 3.189950544139748e1 2.4641075837924287e1 5.189264661801032e1 5.627237044530571e1 3.311700729497262e1 4.20513738288303e1 4.522652459095301e1 4.073059749923993e1 3.977808680148534e1 4.1245957773491355e1 3.136885408166239e1 4.772184078063674e1 2.9826729174536544e0 2.8782144071092852e0 1.5963975089071467e0 3.6509371599548865e0 3.9825185345506102e0 2.651857585494076e0 2.7210144725495593e0 2.9958810861488763e0 2.7300476489030623e0 2.6615183929886563e0 2.2641181507579256e0 2.285543826890666e0 2.9561399171254368e0 4.827954040879593e-1 4.085208371380261e-1 2.972778617331131e-1 5.638000933985468e-1 7.854174516793139e-1 5.010074905256655e-1 4.9096927228686726e-1 5.185139234768897e-1 5.331272738887483e-1 5.63988964975946e-1 4.6633624148167324e-1 4.2948017783489145e-1 3.2821372175708546e-1 
<MIXTURE> 2 4.6895446647193906e-1
<MEAN> 39
5.171960188278104e0 4.772501257303907e0 -3.0697316188514656e0 -1.2247874690014891e1 -1.0983583578744005e1 -7.710363494912684e0 -8.632123536081288e0 -9.984074690573243e0 -1.1688501735944453e1 -6.535104376399005e0 -9.692649527839738e0 -7.947555790300909e0 4.735654649650452e1 1.3685667831818318e0 2.213892123949582e-1 -3.194909235110656e-1 -1.6408038987091538e0 -1.3047743230300017e0 -1.4648838058509336e-1 2.149374296579076e-2 1.8967060768199442e-1 -3.041744038446319e-1 -3.9781750540874444e-1 -6.463035785661922e-1 -6.751124180373717e-1 1.054391330960214e0 -3.158238777700428e-1 -5.188430799799497e-1 -4.16208371634518e-2 -1.4846829210301835e-1 2.9890737379204096e-1 2.4625545278291713e-1 1.002101854665464e-1 3.697791247970609e-1 1.1957233369690692e-1 2.474593491337705e-1 2.2442953694791246e-1 1.5097473642868134e-1 2.5585292014749e-1 
<VARIANCE> 39
2.7790671822533763e1 3.1779812102121763e1 2.4421880707141536e1 6.641186887345859e1 3.546581313425594e1 3.1933731533154443e1 3.530963712230529e1 4.210037178688516e1 3.290472492230964e1 3.137225644408661e1 3.964206231752409e1 2.7996365107016686e1 3.925387460258298e1 4.5332915657880015e0 3.722141308819131e0 2.5719551668613043e0 7.987358375163209e0 4.00124907338198e0 3.388025332926614e0 4.269643406700805e0 5.526013452819528e0 4.687348170967165e0 3.9167320587430394e0 4.053573659670409e0 2.86201959874585e0 4.118204333875226e0 5.200975061493174e-1 5.29710618004418e-1 4.428255946058277e-1 1.028770689206408e0 7.565055122630865e-1 6.961330654250463e-1 6.385634271847073e-1 7.803302363984594e-1 7.324438963308799e-1 6.507169659204595e-1 5.919081421212729e-1 5.031681847452018e-1 3.3147805362219507e-1 
<STATE> 3
<NUMMIXES> 2
<MIXTURE> 1 5.556824785746427e-1
<MEAN> 39
7.984301179597602e0 -2.5839873334542647e0 1.6830058775780719e0 -1.670959601739125e1 -1.6897702646851698e1 3.783009258019488e0 -3.1205331282844755e0 2.2857391325884002e0 -3.1075698063713975e0 -7.387942345956389e0 9.602073280340059e-1 -8.180478559993562e0 5.982119491810145e1 -2.4143302091421764e-1 -1.4072053279441203e0 -9.237428116844852e-1 -1.0653867917152828e0 1.122013333682346e0 1.919821858514436e0 1.862872157420481e-1 4.465018790136539e-1 -6.730464860617505e-2 -1.2478932011413182e0 1.358783927567777e-1 5.577697199066226e-1 1.205372761954814e0 -9.383175261836371e-2 -7.982017426514236e-2 -1.1785901118311987e-1 3.039157815108524e-1 5.692766260841141e-1 8.353274762845474e-2 -2.254276608021418e-1 -4.575789514324661e-1 -2.3742038547327993e-1 9.78204289310231e-2 9.624562446226792e-2 1.6802781913898485e-1 -5.4753914165094834e-2 
<VARIANCE> 39
8.315337129831725e0 2.9549164885871686e1 2.757346708854517e1 4.962525968064273e1 4.234826024099601e1 5.717961801852533e1 6.434634291257449e1 7.256876489088008e1 5.738967412055878e1 5.2309615823628064e1 5.0463428251057564e1 4.238069746899173e1 2.1477703190580996e1 2.74086050209749e-1 1.2241050434027632e0 9.517028601777009e-1 1.771164989338675e0 2.618107216750796e0 2.3536001214974847e0 2.234945042219341e0 3.289533711394828e0 2.554536242018999e0 2.297084216267179e0 2.076495916964551e0 2.150523047668219e0 5.465908271468278e-1 4.4710754271678976e-2 1.3361089876811727e-1 1.623643425560041e-1 2.553669029613983e-1 3.1562934607855997e-1 4.3918434139139456e-1 4.07988676016529e-1 4.080020342819027e-1 3.884323452291909e-1 6.098634498587748e-1 3.419496381992638e-1 3.765929008673919e-1 5.8822763052383424e-2 
<MIXTURE> 2 4.4431752142535275e-1
<MEAN> 39
7.050513749600633e0 -2.9770049741059603e0 -6.470551853531842e0 -2.3652519562048944e1 -9.616622051460311e0 -6.706250948819948e-1 -5.498492950175149e0 -3.524422715139204e0 -1.4231847455010817e1 -7.84444807685811e0 -8.847962013706768e0 -9.212155955665603e0 5.7184718742497765e1 -4.678815601702324e-1 -2.3460303066453125e0 -1.1458840423216532e0 -9.996299785476943e-1 2.8864705702632993e0 2.1147898924202986e0 -4.3170428658182386e-1 3.844054343753194e-2 -1.2855028118563896e0 -7.215791900283459e-1 8.550098985134691e-1 -5.0216182367159565e-2 1.6597004318134347e0 -2.5988617323234114e-1 -1.8204379059401943e-1 2.1054233310549067e-1 8.782964338006737e-1 6.019302443809578e-1 -2.3835823098754783e-1 -6.35388501415651e-1 -5.503657995465534e-1 3.383680917852123e-1 2.0478153650583183e-1 2.015600728108848e-1 -1.1284782818889037e-1 -9.715722663485189e-2 
<VARIANCE> 39
7.436001291044867e0 2.803530232753592e1 2.64585282120117e1 4.294408810056041e1 4.919584018975043e1 5.2162093891839696e1 5.2048765885031905e1 5.33151290616159e1 5.1455101322464884e1 5.303118751225589e1 6.203513069471573e1 3.106356887318465e1 2.1074534071635753e1 4.048970597379634e-1 1.7232672155335083e0 1.0851233059805472e0 3.0827417216392186e0 3.063037963976809e0 2.383803765957726e0 3.4233522321604055e0 3.969249980018592e0 3.064249624186104e0 2.825316497565005e0 2.819127479504506e0 2.562067852624077e0 6.972289360383908e-1 9.614194864388012e-2 2.2894573790696157e-1 2.115982612829641e-1 4.42853747673868e-1 5.848779337859222e-1 6.993379942847235e-1 4.7572567336415e-1 5.165099418618029e-1 7.546265351615561e-1 6.082564058714383e-1 5.578476629573136e-1 4.805179591873202e-1 9.530272316023695e-2 
<STATE> 4
<NUMMIXES> 2
<MIXTURE> 1 5.557606410309915e-1
<MEAN> 39
5.335279022114371e0 -1.1128456791494298e1 -3.630495123466813e0 -1.6263017298514235e1 -3.4492289419652646e0 1.0674131322224657e1 -8.486948923090859e0 -2.822183676669176e0 -5.386621353765668e0 -7.995453138406311e0 2.89225227781776e0 -6.581190325419547e0 6.503933800498089e1 -4.31000263236e-1 -1.0519990839253544e0 -8.802097025030188e-2 1.5177250110386753e0 1.4523604249705446e0 -5.372474270163192e-1 -1.6980371746387732e0 -7.341961697270674e-1 1.0216527250159009e0 1.1194657860726667e0 -1.075226105810011e-1 -8.645017735746148e-1 4.7959294493196136e-1 1.172066312057546e-2 2.1146568269771956e-1 2.578876086277721e-1 2.7858608060312556e-1 -4.500404592522532e-1 -6.494205949467334e-1 -1.1607084645186495e-2 3.866919614241264e-1 3.3307939568381006e-1 1.2480494039192368e-1 -4.4956174593322457e-1 -3.3869686350638756e-1 -1.6534099998377352e-1 
<VARIANCE> 39
8.988951672950325e0 2.328072661942062e1 2.34606850865751e1 5.55208668078991e1 4.4083541786402876e1 5.37761957175004e1 8.276178677765375e1 6.666518269258322e1 8.376016801286353e1 5.281922446889032e1 6.531594652326393e1 5.581680505121545e1 2.5207747823585123e1 1.8114706122477373e-1 5.825092453477541e-1 5.962181746516186e-1 9.481691823064047e-1 1.9170978330264816e0 2.143295680023664e0 1.581694404534912e0 2.129851772998601e0 1.9184876830820636e0 1.7926596494821525e0 2.616568037599998e0 1.8465052158096218e0 2.3005485979019394e-1 2.920525793353431e-2 9.178559249706861e-2 9.68618922156667e-2 1.72742032220842e-1 1.957672997125201e-1 3.121987134678034e-1 2.6552155312863485e-1 2.952538084669457e-1 3.968801858582771e-1 3.8251992546226926e-1 3.036962243417455e-1 3.804367090196877e-1 3.226760174321065e-2 
<MIXTURE> 2 4.4423935896900735e-1
<MEAN> 39
3.3252341368033878e0 -1.2992391746077027e1 -8.881367904697127e0 -1.94184449179082e1 4.907930240130915e0 8.645053811312284e-1 -1.4533304799881803e1 -7.098688650852714e0 -1.2234353396545243e1 -7.662828608882548e0 -6.250083347398698e0 -1.2835879373199306e1 6.294944036637269e1 -8.544486962632876e-1 -1.5752132178997722e0 5.274818411167462e-1 1.9978140842355505e0 9.718038520965793e-1 -1.4089594181221612e0 -1.752266840472313e0 4.4018074511037275e-1 2.03018138291007e0 -3.8519788401190813e-1 -1.211202597133999e0 -5.827909925948467e-1 8.223524411931159e-1 5.996817465477938e-3 3.694163844764175e-1 3.808712882576188e-1 1.7560590141765886e-1 -9.781519624926746e-1 -5.877833179888603e-1 4.911466420199967e-1 5.742043384050485e-1 6.222232849250973e-2 -4.161419524348806e-1 -4.860892485686524e-1 4.532179401964509e-1 -2.1280781573107013e-1 
<VARIANCE> 39
8.3934246307836e0 2.4841277245056375e1 2.6784388615779037e1 4.793306520349893e1 5.0164068343167116e1 4.3810148672593655e1 5.599733723451081e1 5.049407613775472e1 7.825019950241412e1 5.6273947089472976e1 6.023288972235962e1 3.62216718927331e1 1.9880496219933775e1 2.9025585329932924e-1 9.409191972755493e-1 7.895166919856893e-1 1.0644937771082437e0 3.651522963267844e0 2.323876373490692e0 2.592236839998101e0 2.79860584926801e0 2.2728936620617954e0 2.375653717083541e0 3.2492413051305897e0 2.428455581224671e0 3.3996866546989324e-1 3.604005474178269e-2 1.2302075134638377e-1 1.4819373162811125e-1 2.741117883859263e-1 3.573887140080608e-1 4.493426947114819e-1 5.177381836068211e-1 3.754134906331625e-1 7.965887640123727e-1 3.4100691498297175e-1 5.07935596761335e-1 4.1107268008853004e-1 3.911173656360871e-2 
<TRANSP> 5
0e0 1e0 0e0 0e0 0e0
0e0 8.216080230258117e-1 1.7839197697414289e-1 0e0 0e0
0e0 0e0 8.041619632025012e-1 1.9583803679743175e-1 0e0
0e0 0e0 0e0 8.093312402291728e-1 1.9066875977072303e-1
0e0 0e0 0e0 0e0 0e0 
<ENDHMM>
~h "z"
<BEGINHMM>
<NUMSTATES> 5
<STATE> 2
<NUMMIXES> 2
<MIXTURE> 1 5.69781433282271e-1
<MEAN> 39
-9.816711067441412e0 4.991464171778007e0 7.3308407611802275e0 3.7416917876603917e-1 2.777865429298093e-1 -7.835536261915118e0 -6.897282354887387e0 -2.136536167989712e0 -2.9225556230420437e0 -2.2972831173886394e0 -3.1213135188322254e0 -3.791865297112533e0 4.801373696737989e1 -1.60271433710238e0 1.9969107161395798e0 3.227921488284385e-1 -4.070756147596662e-1 1.2954137815327893e0 -7.367048320942821e-1 -1.2703193176050445e-1 -1.8420399734988258e-1 3.5210647942304565e-2 5.468924510228923e-2 -3.213529772518616e-1 2.6199365138908803e-1 1.559913701430172e0 -2.268857893912389e-1 3.0651629256435307e-2 -2.169863764162005e-1 2.8731912089597815e-3 -5.1513238906813585e-2 1.2200152382716109e-1 1.3399652717205486e-2 6.8338481016991e-2 8.807809088264836e-3 -9.791111496125972e-3 1.591946143916358e-1 6.1291057223116105e-2 4.5567555539446365e-2 
<VARIANCE> 39
5.799041155957117e1 4.4389937854907146e1 5.404962523468023e1 3.9720993101090954e1 4.612037485263492e1 5.1739643165627335e1 6.959886104362356e1 3.863900453589749e1 3.0997449782031886e1 3.103421930266528e1 2.761380004131526e1 2.8583316284135257e1 1.1074241979730232e2 7.156303126265377e0 4.319035198160685e0 3.8037011522045603e0 3.128105880025815e0 4.544734219835826e0 4.116783276226218e0 4.4437731450519955e0 3.5503931886444082e0 3.3942586431821744e0 2.8654014652378614e0 2.7812442389702676e0 2.5790470852983987e0 4.2369020086923e0 6.569893844089718e-1 5.939932437285408e-1 5.588806308479876e-1 5.215185845550963e-1 6.51779702465036e-1 7.818089615011492e-1 6.785864948817102e-1 5.923520282549571e-1 5.420230912460754e-1 5.250167733764403e-1 5.032438914056309e-1 4.381684741392041e-1 5.27094377279446e-1 
<MIXTURE> 2 4.3021856671773234e-1
<MEAN> 39
-6.322699587169522e0 6.090691593253322e0 2.1657954838368982e0 3.7588419853312166e-1 -1.1235621528997985e1 -1.512467208913242e1 -9.581038150750018e0 -1.0209669204558885e1 -9.935848645364594e0 -1.032852245030633e1 -8.437762894212677e0 -4.258854700245881e0 4.944873295251887e1 -1.5099632792704183e0 2.7523848880771777e0 -1.0497103175384308e0 1.9126083932259332e0 2.4692102783136455e-1 5.130344862524175e-2 -1.5440854532057646e-1 -8.606972191850157e-1 -2.8096524212517743e-1 -1.6762511608760637e0 2.4337441663418544e-1 -1.3489128375405977e0 8.82282108839296e-1 -6.021467916933877e-1 -1.2924499239655585e-1 -2.168715891495958e-1 2.9343337423820382e-2 3.833946683769596e-1 6.520495476206132e-1 3.355914761822655e-1 4.350850197549596e-1 2.038909034831487e-1 4.9901997530245523e-1 2.1218975698626918e-1 -1.127820276568238e-1 -8.741615027162834e-2 
<VARIANCE> 39
3.1098955000445308e1 3.925879517515135e1 3.434309127119899e1 4.100194662013617e1 4.668417555518056e1 5.565321299680602e1 3.634721716831221e1 3.695989441709942e1 3.890522705376307e1 3.3957974392258606e1 3.354689139773751e1 3.812791292055735e1 7.22811217308772e1 7.628831266743054e0 5.167718800142158e0 4.125607464082637e0 4.497702931323329e0 5.3852471577382905e0 5.328514415515993e0 4.677081180908055e0 4.5777142701155284e0 4.871017098008572e0 4.328018149576356e0 4.631414493070894e0 3.1400024170724734e0 4.784646715597454e0 4.90899501369977e-1 7.329982638789938e-1 6.736411410823624e-1 5.286307553296097e-1 6.869677073592777e-1 6.752205692873856e-1 5.920858628127079e-1 7.047313299189958e-1 7.962963150416924e-1 6.476515231095016e-1 5.966371224920354e-1 6.901010475335065e-1 4.3731297364123833e-1 
<STATE> 3
<NUMMIXES> 2
<MIXTURE> 1 4.905823235446576e-1
<MEAN> 39
-1.5968491622102126e1 1.2926313864549117e1 8.343911803795534e0 -2.631776258208421e-1 5.359774866957394e0 -1.0499392587528888e1 -8.9626478139253e0 -3.070122236902117e0 -2.731244278918957e0 -1.9142415725521147e0 -3.627590971210648e0 -2.452652542508478e0 5.7610248165144725e1 -2.1996225833973924e0 1.0370265450745406e0 -1.8215558540722337e-1 3.665742213407256e-2 1.1197186902461043e0 6.290232186148076e-1 6.611352720049599e-1 5.848689841637562e-1 1.5532238397734308e-1 6.913065773940118e-2 3.902542532838031e-2 3.059205418077061e-1 1.2406924158154617e-1 5.463868680653797e-1 -7.460015571528512e-1 1.6196050814496799e-1 1.935417213278103e-2 -4.9921872674659085e-1 1.7623375823005494e-1 3.121092211071276e-2 3.160722219702963e-3 -1.853173783250533e-1 -8.105594062803032e-2 7.031018312774617e-2 -1.5381551711313196e-1 -3.613730155908205e-2 
<VARIANCE> 39
2.74890901726059e1 2.6502126844830855e1 3.994939507902272e1 4.1308997781350435e1 3.725549429720128e1 4.842016107857418e1 4.615129530228896e1 3.1551173481714585e1 2.6031556250381755e1 2.5800056718931465e1 2.1041856801685963e1 1.957164339963861e1 2.3619582044170784e1 2.716420452761424e0 2.402523493269018e0 1.67155713548957e0 1.738426638721766e0 2.1825556316980075e0 2.5774927858426135e0 2.5078953669600796e0 1.9981657762322094e0 1.7139158013414226e0 1.7672352009979748e0 1.6591241434383197e0 1.4814423849891032e0 9.991270902712653e-1 2.721409825998e-1 3.4569158124687915e-1 3.1383636382383423e-1 3.29033816359602e-1 3.737975817378431e-1 4.857396766908631e-1 3.5705548826449285e-1 3.932506391841598e-1 3.5810959554741495e-1 3.5547701848606306e-1 3.2980395549758906e-1 2.5431234309967676e-1 1.600518213502193e-1 
<MIXTURE> 2 5.094176764553437e-1
<MEAN> 39
-1.5802841973903854e1 1.3966754816906345e1 -1.4383366989633537e0 7.039099224266631e0 -8.506051862923295e0 -1.020615966869296e1 -8.796356898506783e0 -1.150431292030564e1 -1.1413738955786124e1 -1.2825696494240006e1 -7.364706021520113e0 -1.0164833500342446e1 5.231966135071601e1 -2.120695463816663e0 2.2491938302271233e-1 -4.98877994470832e-1 9.271470307174247e-1 9.71899466672959e-1 1.6165822435721924e0 7.266285321667078e-1 3.357384932150998e-1 1.0040533335200505e-1 3.3025041058549726e-1 5.300942028984045e-1 -3.5744817717806115e-1 -1.3813165362273306e-2 4.781989498916046e-1 -8.598437918478142e-1 2.0046240388408895e-1 -7.326778265143864e-1 -3.847383963961055e-1 -2.4427635083057014e-1 1.2438653957892853e-1 5.565733542904194e-2 2.0745986501974964e-1 4.832512813644201e-1 5.143396868017367e-2 4.8048756527965125e-1 1.4444221607185204e-1 
<VARIANCE> 39
2.1839696944119936e1 2.6175365520830127e1 1.998643498907487e1 2.4184696039430506e1 3.935044792065321e1 4.182915514020519e1 2.8627513493163562e1 2.18900169235489e1 2.4610452897525676e1 2.1673607208674525e1 2.4140492026659828e1 2.2129061491202535e1 1.705724772520898e1 2.55226230654774e0 3.473263102698094e0 2.401715921810047e0 2.787448937633037e0 2.92429157595286e0 3.7551531036759833e0 2.5376072418205644e0 2.4868621999513296e0 2.491154165517044e0 2.6452847156292356e0 2.239736658413924e0 2.100030490753309e0 1.1991299693598099e0 2.8760647554893737e-1 5.427378640528282e-1 3.654511922121323e-1 3.9367824625734094e-1 6.621226327061793e-1 6.299539580995888e-1 4.5143010206351153e-1 5.312871189807223e-1 5.225440990759375e-1 5.295789534491431e-1 4.786851889294042e-1 3.572766005014756e-1 2.0289365643422724e-1 
<STATE> 4
<NUMMIXES> 2
<MIXTURE> 1 5.20640232963588e-1
<MEAN> 39
-2.2411986143922693e1 1.1267046459876118e1 7.889451220659164e0 -1.8954669742940793e0 6.465061794984492e0 -5.876160314516538e0 -5.544804516173071e0 -1.1964106159071628e-2 -3.090807616587237e0 -2.1395703053181707e0 -2.255521742202535e0 -2.1166476342125473e0 5.7386616227273564e1 5.941838201874027e-1 -1.0937618122488066e0 1.7937152534938935e-1 -2.0045802800351042e-1 -1.0842913799256806e0 -4.3938182518395624e-1 -1.78394741896518e-1 2.6512085132879445e-2 -4.568689098751974e-2 9.078046274215754e-2 1.542217379002896e-1 8.03964395434327e-3 9.311372937843171e-1 1.2238228871966301e0 -7.129427633261454e-1 2.5466721941226617e-1 5.505752142344118e-2 -8.844712131576533e-1 -5.020464092407395e-1 -5.130551620881721e-1 -3.1499200095112534e-1 2.869953598038932e-2 -5.8760315737945386e-2 3.374530194485174e-2 -8.467659243913819e-2 2.5785244064906293e-1 
<VARIANCE> 39
3.1458404620601016e1 2.6050788214966715e1 5.350550075457363e1 3.7338520336528e1 4.0098934148757714e1 5.68956006758452e1 5.924730279990685e1 3.292814875332183e1 2.597147182189604e1 2.1115194040443534e1 1.8051067513958557e1 1.825870727505569e1 2.956249705039636e1 3.3533466309261133e0 1.9973082875692374e0 2.4424900282452016e0 1.7791346745001826e0 2.5647189429265347e0 2.7787016684346546e0 2.4069405902477623e0 1.9306234215611577e0 1.7892787580698286e0 1.8649626111900617e0 1.4245118608717446e0 1.123562447302795e0 7.340747648395536e-1 4.1042438280851856e-1 4.599754534145528e-1 4.3610439136127044e-1 3.744822477730319e-1 4.4790402893440584e-1 5.162964896467505e-1 4.9257679844135044e-1 4.0176646356626133e-1 3.55039555756708e-1 3.778812003991548e-1 3.080033630471861e-1 2.5520215142646374e-1 1.1645020782694009e-1 
<MIXTURE> 2 4.793597670364149e-1
<MEAN> 39
-2.4095474215651443e1 7.197882286816467e0 -6.469664068338996e0 5.294506767647111e0 -5.558136876043332e0 -2.6768373107079517e0 -1.0391355333791414e0 -5.618630587771833e0 -5.4485332182773245e0 -5.292921402551939e0 -1.4129955996569596e0 -5.703745562747308e0 5.137522274869804e1 5.088249741938171e-1 -7.933256640907448e-1 3.896151811125761e-1 -1.5433206947159253e0 -1.345721820855517e0 -9.210142472118504e-1 3.2553105197815757e-1 -4.571528396029961e-1 3.874613162746745e-1 5.891003424968436e-1 7.430786248433282e-1 5.712742974826635e-1 1.088669260289177e0 1.3535322030899695e0 -1.1108158717029888e-1 1.0263203387304645e0 -7.309682588474914e-1 -8.337296740499955e-1 -1.1668757726734538e0 -6.569136286538978e-1 -6.378645284744594e-1 -4.818751555569286e-1 -1.9842812897950626e-1 -4.0333977839666113e-1 1.0457349485932466e-2 3.940791036098436e-1 
<VARIANCE> 39
2.3995663639959957e1 3.8429180943210184e1 3.5853726332635446e1 2.3652407844141916e1 3.130043640451672e1 3.561795268291472e1 3.336692915381261e1 3.5333635510182546e1 3.864081241253972e1 3.9957128772008076e1 3.3141721645165326e1 2.9001723583445802e1 2.2328076584560222e1 4.000351138121038e0 2.752683635624451e0 4.322438976261824e0 2.262209687659354e0 3.0173556153740186e0 4.553671725435637e0 3.0594222536742532e0 4.489815520553901e0 3.567409232984007e0 3.6977331846134645e0 2.7286451063062156e0 2.468857120314862e0 1.0218959947528814e0 4.2557953936912085e-1 7.270202727076075e-1 4.5584942801254713e-1 5.097658442708369e-1 6.730529538539478e-1 6.07379527519398e-1 6.779974373687433e-1 6.661894821712979e-1 6.445265772907507e-1 7.533428025282556e-1 5.883581388959352e-1 5.435746677011569e-1 1.7364978573349504e-1 
<TRANSP> 5
0e0 1e0 0e0 0e0 0e0
0e0 6.777815826922292e-1 3.2221841730779816e-1 0e0 0e0
0e0 0e0 7.214371991878469e-1 2.785628008120527e-1 0e0
0e0 0e0 0e0 6.778338631791128e-1 3.2216613682076367e-1
0e0 0e0 0e0 0e0 0e0 
<ENDHMM>
~h "ah"
<BEGINHMM>
<NUMSTATES> 5
<STATE> 2
<NUMMIXES> 2
<MIXTURE> 1 4.84803121839427e-1
<MEAN> 39
4.030047771671368e0 -1.1714888831930416e1 1.5230889447564524e0 -6.262390511875937e0 -5.338220051719594e0 -3.532497554904258e-1 -1.3687425980682018e1 -1.817308371238716e-1 1.196163364437891e0 -1.457541730950485e0 -6.796379124611296e-1 -1.1023543850612018e1 6.356108002256566e1 -1.4488543623778538e-1 -3.3234947658660174e-1 8.469339934522959e-1 2.504967684102106e-1 -5.365492961404474e-1 -9.407872932540055e-1 -3.805124947523508e-1 1.4649104534746886e0 5.225559204136562e-1 -3.249587527697026e-1 -1.4068211218033926e0 -3.137875646089528e-1 4.4839736780655093e-1 -4.752247703189951e-3 5.007753535255047e-1 3.115354473076583e-1 2.584828779944478e-1 -2.348950632327155e-2 -7.592809605328789e-2 4.4668947382176577e-1 -4.451687987333252e-1 -6.793623969511098e-1 2.6276534552229096e-2 6.9319334263092e-2 2.6517041044617445e-1 -4.8355223419852483e-1 
<VARIANCE> 39
1.0055468201935945e1 2.2590204431305125e1 3.1470494039864377e1 3.1062043818219898e1 3.1061879955809268e1 5.437191691213289e1 4.9910727633507605e1 5.165435394130846e1 5.5801909930918384e1 5.689145440388152e1 5.976739534717538e1 3.3997239294438074e1 2.99573790703339e1 5.207434170914405e-1 1.4133668984971524e0 1.179980893900209e0 2.822010246828742e0 1.8635189025406185e0 3.2266848375627086e0 2.118140208442494e0 2.5900298701749827e0 2.8573910347007776e0 2.5933138957454704e0 2.5588288133456762e0 2.3714289071123003e0 1.2422757946529672e0 1.0711470015272082e-1 2.7855466544016905e-1 2.2156813266227438e-1 4.2224531479849425e-1 3.7487971538679704e-1 3.869552769740871e-1 4.837791872909757e-1 7.860315402096195e-1 6.667116297199509e-1 4.804548795067632e-1 4.8748694917321445e-1 3.5683187086250934e-1 2.3940432546018503e-1 
<MIXTURE> 2 5.151968781605758e-1
<MEAN> 39
6.366638603220846e-2 -1.5157485203728438e1 -2.154622198432157e0 -1.188425872448928e1 -3.202748679371588e0 -1.0085610970010983e1 -1.3041640953716731e1 -6.251489828340564e-1 -8.56862796499789e0 -1.3310083266458081e1 -1.2883276572511456e1 -7.9838961157976245e0 6.290840803438723e1 -3.934844971246802e-1 -2.426739233182348e-1 8.674631842707676e-1 -1.9146288680291013e-1 -1.5623105192865403e0 -1.0743884431552946e0 1.4056651260964408e0 1.3944910230521017e0 -9.711248207408475e-1 -1.2388397099411546e0 -1.5123178458891054e-1 1.3841276507925808e0 5.359457183956753e-1 9.08864525329313e-2 5.394273765120008e-1 1.6197101504568157e-1 2.4389084375145663e-3 -1.0506683357882352e-1 2.0414924132831477e-1 1.6520064504998425e-1 -4.4164764208420265e-1 -4.9829139120964916e-1 3.3601763885029695e-1 3.657685277270557e-1 1.9105203783746194e-2 -3.975672960335984e-1 
<VARIANCE> 39
8.967068394917787e0 2.6144787787750403e1 3.3289954009885115e1 3.1436616942557833e1 7.881038420804741e1 5.440254287276316e1 5.6954293229054144e1 5.6002666096941354e1 5.073268605099972e1 5.246897806118329e1 3.7219743123581566e1 3.766168144148312e1 2.23857563556453e1 4.508548647301057e-1 1.2804201570516232e0 1.2219677629711856e0 3.602475083136755e0 2.0963315124520236e0 2.178780996261521e0 1.9292359614813326e0 2.0723020866648065e0 2.29757527975289e0 2.2583158128583056e0 2.237299043579984e0 1.8432479133786561e0 1.1318573939619327e0 9.590135495593607e-2 2.1990486910492568e-1 1.4542595373628076e-1 4.856779672777199e-1 3.8481708275156445e-1 3.060637656435386e-1 4.769417311080828e-1 4.728334275556394e-1 4.1938210231352135e-1 4.0014019446974436e-1 4.1011940692390014e-1 3.668238512901072e-1 1.6986593953908494e-1 
<STATE> 3
<NUMMIXES> 2
<MIXTURE> 1 4.4526850197819484e-1
<MEAN> 39
3.5317215875730033e0 -1.1054214128936042e1 4.265097147627909e0 -4.832450934937495e0 -5.922969720346178e0 -2.651733857523097e0 -1.4119392142287051e1 2.160347297611859e0 1.2807304844998937e-1 -3.61972541471306e0 -3.580282241535456e0 -1.0764146417883662e1 6.314397048033812e1 1.6859995516329684e-1 1.8869502862533158e0 1.8238674359068447e0 2.4072812734361344e0 -8.03967722344647e-1 -1.481058791130196e0 1.626850139591481e0 -2.166074565978577e0 -2.188620779799797e0 8.11881350604519e-1 -5.522216675175288e-1 3.057316606609352e-1 -1.944350760897306e0 6.799187515400934e-2 5.273500200719344e-1 9.170822517411374e-2 3.651937646085935e-1 -1.0515389831153966e-1 1.2954730084716692e-1 7.909551388806034e-1 -1.1518157532221533e0 -7.242236279766077e-1 3.384247717340216e-1 2.0766562142077707e-1 2.430829799585362e-1 -4.861162542224172e-1 
<VARIANCE> 39
