<NUMMIXES> 2
<MIXTURE> 1 5.000000e-001
<MEAN> 39 
-1.409003e+001 2.070067e+000 5.057339e-003 1.391783e+000 2.517376e-001 1.478880e-001 1.406425e+000 2.105982e+000 2.907135e+000 2.198835e+000 2.499642e+000 1.111057e+000 3.058692e+001 -1.073576e-002 1.674598e-001 2.122544e-001 1.673996e-001 1.735703e-001 2.032638e-001 2.174753e-001 2.450577e-001 3.489596e-001 3.925292e-001 3.192101e-001 2.300138e-001 6.045158e-003 1.139644e-001 7.324542e-003 6.989875e-002 6.290235e-002 5.540482e-002 5.856469e-002 6.557361e-002 5.839899e-002 1.470258e-002 2.881422e-002 4.327500e-002 5.911613e-002 1.678029e-001 
<VARIANCE> 39
6.022906e+000 6.518144e+000 7.252253e+000 8.376198e+000 1.174950e+001 1.347111e+001 1.304933e+001 1.361854e+001 1.611592e+001 1.722112e+001 1.464541e+001 1.113505e+001 3.553995e+000 3.133074e-001 4.780065e-001 6.305229e-001 7.273427e-001 9.522700e-001 1.132198e+000 1.241851e+000 1.382745e+000 1.538171e+000 1.570385e+000 1.386253e+000 1.158948e+000 1.987574e-001 6.894917e-002 1.069868e-001 1.291975e-001 1.557773e-001 1.994648e-001 2.305281e-001 2.533597e-001 2.859714e-001 3.061706e-001 3.079845e-001 2.778525e-001 2.397264e-001 6.814665e-002 
<MIXTURE> 2 5.000000e-001
<MEAN> 39
-1.507169e+001 1.048841e+000 -1.072143e+000 2.341162e-001 -1.119364e+000 -1.320232e+000 -3.852974e-002 6.298499e-001 1.301349e+000 5.389012e-001 9.688696e-001 -2.237118e-001 2.983284e+001 -2.346312e-001 -1.090923e-001 -1.053675e-001 -1.737379e-001 -2.167669e-001 -2.223553e-001 -2.282782e-001 -2.253031e-001 -1.471325e-001 -1.087308e-001 -1.517468e-001 -2.006040e-001 -1.722837e-001 8.931701e-003 -1.235108e-001 -7.387746e-002 -9.497219e-002 -1.232411e-001 -1.334887e-001 -1.357658e-001 -1.555062e-001 -2.066282e-001 -1.931712e-001 -1.675719e-001 -1.367313e-001 6.338327e-002 
<VARIANCE> 39
6.022906e+000 6.518144e+000 7.252253e+000 8.376198e+000 1.174950e+001 1.347111e+001 1.304933e+001 1.361854e+001 1.611592e+001 1.722112e+001 1.464541e+001 1.113505e+001 3.553995e+000 3.133074e-001 4.780065e-001 6.305229e-001 7.273427e-001 9.522700e-001 1.132198e+000 1.241851e+000 1.382745e+000 1.538171e+000 1.570385e+000 1.386253e+000 1.158948e+000 1.987574e-001 6.894917e-002 1.069868e-001 1.291975e-001 1.557773e-001 1.994648e-001 2.305281e-001 2.533597e-001 2.859714e-001 3.061706e-001 3.079845e-001 2.778525e-001 2.397264e-001 6.814665e-002 